{"learner":{"attributes":{"scikit_learn":"{\"_estimator_type\": \"regressor\"}"},"feature_names":["store_nbr","item_nbr","onpromotion","outlier","dcoilwtico","is_holiday","is_event","dayofweek","is_weekend","month","day","weekofyear","year","is_month_start","is_month_end","lag_1","lag_7","lag_14","lag_30","lag_60","rolling_mean_7","rolling_std_7","rolling_mean_14","rolling_std_14","rolling_mean_30","rolling_std_30","ewm_mean_7","ewm_std_7","ewm_mean_14","ewm_std_14","ewm_mean_30","ewm_std_30","promo_last_week","oil_price_lag_3","oil_price_change","next_is_holiday","next_is_event","outlier_lag_1","outlier_lag_7","outlier_lag_14","outlier_lag_30","outlier_rolling_mean_7"],"feature_types":["int","int","int","int","float","int","int","int","int","int","int","int","int","int","int","float","float","float","float","float","float","float","float","float","float","float","float","float","float","float","float","float","float","float","float","int","int","float","float","float","float","float"],"gradient_booster":{"model":{"gbtree_model_param":{"num_parallel_tree":"1","num_trees":"150"},"iteration_indptr":[0,1,2,3,4,5,6,7,8,9,10,11,12,13,14,15,16,17,18,19,20,21,22,23,24,25,26,27,28,29,30,31,32,33,34,35,36,37,38,39,40,41,42,43,44,45,46,47,48,49,50,51,52,53,54,55,56,57,58,59,60,61,62,63,64,65,66,67,68,69,70,71,72,73,74,75,76,77,78,79,80,81,82,83,84,85,86,87,88,89,90,91,92,93,94,95,96,97,98,99,100,101,102,103,104,105,106,107,108,109,110,111,112,113,114,115,116,117,118,119,120,121,122,123,124,125,126,127,128,129,130,131,132,133,134,135,136,137,138,139,140,141,142,143,144,145,146,147,148,149,150],"tree_info":[0,0,0,0,0,0,0,0,0,0,0,0,0,0,0,0,0,0,0,0,0,0,0,0,0,0,0,0,0,0,0,0,0,0,0,0,0,0,0,0,0,0,0,0,0,0,0,0,0,0,0,0,0,0,0,0,0,0,0,0,0,0,0,0,0,0,0,0,0,0,0,0,0,0,0,0,0,0,0,0,0,0,0,0,0,0,0,0,0,0,0,0,0,0,0,0,0,0,0,0,0,0,0,0,0,0,0,0,0,0,0,0,0,0,0,0,0,0,0,0,0,0,0,0,0,0,0,0,0,0,0,0,0,0,0,0,0,0,0,0,0,0,0,0,0,0,0,0,0,0],"trees":[{"base_weights":[5.6208155E-8,-6.448681E-1,3.247162E1,-1.3917263E0,6.394735E0,2.684893E1,9.4115425E1,-1.8309869E0,6.2975055E-1,4.594441E0,1.1124291E1,2.1333162E1,4.158181E1,7.344649E1,1.19506195E2,-1.9526944E0,-1.0850421E0,6.61485E-2,1.5938662E0,3.5537188E0,6.2854323E0,9.683828E0,1.4784864E1,1.881087E1,2.78678E1,3.5394764E1,5.1595375E1,5.5724907E1,7.6454216E1,1.582077E2,1.07053024E2,-1.9639932E0,-1.6733648E0,-1.3087504E0,-8.388871E-1,-1.6485193E-1,6.575655E-1,1.1893066E0,2.6095815E0,2.9242122E0,5.1368036E0,5.377021E0,8.603917E0,8.429185E0,1.1769724E1,1.2898969E1,1.7988472E1,1.6443016E1,2.2742422E1,2.3829575E1,3.2028614E1,3.2823227E1,4.4025948E1,4.3885563E1,6.12827E1,6.122729E1,3.934649E1,7.299797E1,9.345143E1,9.5688866E1,1.99381E2,9.829616E1,1.390256E2,-9.833243E-2,-9.431819E-2,-8.791133E-2,-8.082777E-2,-7.107276E-2,-5.9444636E-2,-4.8602663E-2,-2.5757411E-2,-2.3141824E-2,8.416898E-3,9.7037135E-3,5.782341E-2,4.318064E-2,7.991507E-2,1.0775485E-1,1.6207281E-1,1.2383204E-1,1.7650451E-1,2.2458966E-1,3.045399E-1,2.4215701E-1,3.1316805E-1,3.8961446E-1,4.929595E-1,3.886583E-1,4.7226247E-1,1.2608337E1,5.8688027E-1,5.9337574E-1,7.2910374E-1,8.2215494E-1,1.0007275E0,7.700066E-1,9.25185E-1,1.084491E0,1.2636708E0,1.1212687E0,1.4172934E0,1.4675454E0,1.8119258E0,1.5493406E0,2.03374E0,2.1212308E0,2.699509E0,1.8216507E0,2.489991E0,2.6674817E0,3.6009758E0,2.942412E0,4.959694E0,1.7602723E0,6.781255E0,3.4501297E0,3.9183118E0,5.4549203E0,4.3682942E0,4.254232E0,5.4359217E0,7.8006377E0,1.2879669E1,4.3660254E0,5.2701745E0,5.1915665E0,8.337363E0],"categories":[],"categories_nodes":[],"categories_segments":[],"categories_sizes":[],"default_left":[1,1,0,0,0,0,1,0,1,0,0,0,1,0,0,0,0,0,0,0,0,0,0,0,0,0,0,0,0,0,0,0,0,0,0,0,0,0,0,0,1,0,1,1,0,1,1,1,1,1,1,0,0,0,0,0,0,1,0,0,0,1,1,0,0,0,0,0,0,0,0,0,0,0,0,0,0,0,0,0,0,0,0,0,0,0,0,0,0,0,0,0,0,0,0,0,0,0,0,0,0,0,0,0,0,0,0,0,0,0,0,0,0,0,0,0,0,0,0,0,0,0,0,0,0,0,0],"id":0,"left_children":[1,3,5,7,9,11,13,15,17,19,21,23,25,27,29,31,33,35,37,39,41,43,45,47,49,51,53,55,57,59,61,63,65,67,69,71,73,75,77,79,81,83,85,87,89,91,93,95,97,99,101,103,105,107,109,111,113,115,117,119,121,123,125,-1,-1,-1,-1,-1,-1,-1,-1,-1,-1,-1,-1,-1,-1,-1,-1,-1,-1,-1,-1,-1,-1,-1,-1,-1,-1,-1,-1,-1,-1,-1,-1,-1,-1,-1,-1,-1,-1,-1,-1,-1,-1,-1,-1,-1,-1,-1,-1,-1,-1,-1,-1,-1,-1,-1,-1,-1,-1,-1,-1,-1,-1,-1,-1],"loss_changes":[1.581006E8,3.8922856E7,5.095624E7,5.94316E6,6.046116E6,1.0948104E7,6.440496E6,4.99176E5,6.4921E5,9.05109E5,1.032156E6,1.615312E6,2.271964E6,3.56964E5,2.640088E6,1.4916E4,4.2470062E4,1.0300949E5,1.8111738E5,3.1726975E5,4.126385E5,3.67578E5,3.33765E5,6.5813E5,4.57942E5,5.02124E5,1.04398E6,8.653975E4,3.3338E5,3.430226E6,1.154964E6,9.32E2,8.83125E2,5.4564375E3,1.5830406E4,5.3834227E4,4.897185E4,4.1988312E4,3.6048375E4,6.176425E4,5.57105E4,6.65895E4,5.611975E4,5.84035E4,4.04451E5,6.0243E4,6.3801E4,9.4599E4,7.0279E4,8.72485E4,1.50477E5,2.50838E5,8.0761E4,3.4229E5,5.2493E5,6.0732E4,9.529741E4,9.7908E4,8.3309E4,6.4532E4,1.99714E6,2.46662E5,8.55888E5,0E0,0E0,0E0,0E0,0E0,0E0,0E0,0E0,0E0,0E0,0E0,0E0,0E0,0E0,0E0,0E0,0E0,0E0,0E0,0E0,0E0,0E0,0E0,0E0,0E0,0E0,0E0,0E0,0E0,0E0,0E0,0E0,0E0,0E0,0E0,0E0,0E0,0E0,0E0,0E0,0E0,0E0,0E0,0E0,0E0,0E0,0E0,0E0,0E0,0E0,0E0,0E0,0E0,0E0,0E0,0E0,0E0,0E0,0E0,0E0,0E0,0E0,0E0,0E0],"parents":[2147483647,0,0,1,1,2,2,3,3,4,4,5,5,6,6,7,7,8,8,9,9,10,10,11,11,12,12,13,13,14,14,15,15,16,16,17,17,18,18,19,19,20,20,21,21,22,22,23,23,24,24,25,25,26,26,27,27,28,28,29,29,30,30,31,31,32,32,33,33,34,34,35,35,36,36,37,37,38,38,39,39,40,40,41,41,42,42,43,43,44,44,45,45,46,46,47,47,48,48,49,49,50,50,51,51,52,52,53,53,54,54,55,55,56,56,57,57,58,58,59,59,60,60,61,61,62,62],"right_children":[2,4,6,8,10,12,14,16,18,20,22,24,26,28,30,32,34,36,38,40,42,44,46,48,50,52,54,56,58,60,62,64,66,68,70,72,74,76,78,80,82,84,86,88,90,92,94,96,98,100,102,104,106,108,110,112,114,116,118,120,122,124,126,-1,-1,-1,-1,-1,-1,-1,-1,-1,-1,-1,-1,-1,-1,-1,-1,-1,-1,-1,-1,-1,-1,-1,-1,-1,-1,-1,-1,-1,-1,-1,-1,-1,-1,-1,-1,-1,-1,-1,-1,-1,-1,-1,-1,-1,-1,-1,-1,-1,-1,-1,-1,-1,-1,-1,-1,-1,-1,-1,-1,-1,-1,-1,-1],"split_conditions":[1.8082773E1,4.4467964E0,6.759784E1,1.2499435E0,1.0018969E1,3.3217167E1,8.8E1,2.6227528E-1,2.7567463E0,6.8860564E0,5E0,5E0,4.7E1,6.75E1,2.60893E5,4.2438056E-2,7.4981624E-1,5E0,5E0,5E0,5E0,1.3841012E1,1.3841012E1,2.4892004E1,2.3101711E1,4.805495E1,5E0,5E1,5E0,2.22879E5,6E0,1.2599E-3,1.3114539E-1,5.102402E-1,5E0,1.9630446E0,1.9160136E0,3.5602615E0,3.6071782E0,5.6266627E0,5.633333E0,8.578572E0,8.5E0,1.1733334E1,3.9666667E0,1.21E1,2.1E1,2.1533333E1,2.93E1,3.4E1,3.7E1,5E0,5E0,4.805495E1,4.805495E1,1.148719E6,1.165988E6,8.7E1,7E0,5E0,3.6E1,3.7260498E1,3.7260498E1,-9.833243E-2,-9.431819E-2,-8.791133E-2,-8.082777E-2,-7.107276E-2,-5.9444636E-2,-4.8602663E-2,-2.5757411E-2,-2.3141824E-2,8.416898E-3,9.7037135E-3,5.782341E-2,4.318064E-2,7.991507E-2,1.0775485E-1,1.6207281E-1,1.2383204E-1,1.7650451E-1,2.2458966E-1,3.045399E-1,2.4215701E-1,3.1316805E-1,3.8961446E-1,4.929595E-1,3.886583E-1,4.7226247E-1,1.2608337E1,5.8688027E-1,5.9337574E-1,7.2910374E-1,8.2215494E-1,1.0007275E0,7.700066E-1,9.25185E-1,1.084491E0,1.2636708E0,1.1212687E0,1.4172934E0,1.4675454E0,1.8119258E0,1.5493406E0,2.03374E0,2.1212308E0,2.699509E0,1.8216507E0,2.489991E0,2.6674817E0,3.6009758E0,2.942412E0,4.959694E0,1.7602723E0,6.781255E0,3.4501297E0,3.9183118E0,5.4549203E0,4.3682942E0,4.254232E0,5.4359217E0,7.8006377E0,1.2879669E1,4.3660254E0,5.2701745E0,5.1915665E0,8.337363E0],"split_indices":[28,28,28,28,28,28,16,28,28,28,7,7,16,24,1,28,28,7,7,7,7,28,28,28,28,28,7,11,7,1,7,31,28,28,7,28,28,28,28,28,24,28,24,24,24,24,16,24,24,16,16,7,7,28,28,1,1,18,10,7,0,25,25,0,0,0,0,0,0,0,0,0,0,0,0,0,0,0,0,0,0,0,0,0,0,0,0,0,0,0,0,0,0,0,0,0,0,0,0,0,0,0,0,0,0,0,0,0,0,0,0,0,0,0,0,0,0,0,0,0,0,0,0,0,0,0,0],"split_type":[0,0,0,0,0,0,0,0,0,0,0,0,0,0,0,0,0,0,0,0,0,0,0,0,0,0,0,0,0,0,0,0,0,0,0,0,0,0,0,0,0,0,0,0,0,0,0,0,0,0,0,0,0,0,0,0,0,0,0,0,0,0,0,0,0,0,0,0,0,0,0,0,0,0,0,0,0,0,0,0,0,0,0,0,0,0,0,0,0,0,0,0,0,0,0,0,0,0,0,0,0,0,0,0,0,0,0,0,0,0,0,0,0,0,0,0,0,0,0,0,0,0,0,0,0,0,0],"sum_hessian":[7.550201E6,7.403179E6,1.47022E5,6.693085E6,7.10094E5,1.34734E5,1.2288E4,5.498318E6,1.194767E6,5.14321E5,1.95773E5,9.8034E4,3.67E4,6.776E3,5.512E3,4.727055E6,7.71263E5,7.53997E5,4.4077E5,3.18378E5,1.95943E5,1.40492E5,5.5281E4,7.0735E4,2.7299E4,2.2687E4,1.4013E4,9.86E2,5.79E3,1.339E3,4.173E3,4.543274E6,1.83781E5,4.04052E5,3.67211E5,5.42215E5,2.11782E5,3.1522E5,1.2555E5,2.27798E5,9.058E4,1.40785E5,5.5158E4,8.7729E4,5.2763E4,3.48E4,2.0481E4,4.415E4,2.6585E4,1.3857E4,1.3442E4,1.7483E4,5.204E3,7.806E3,6.207E3,7.36E2,2.5E2,4.816E3,9.74E2,5.33E2,8.06E2,3.279E3,8.94E2,4.392988E6,1.50286E5,7.3683E4,1.10098E5,2.08234E5,1.95818E5,2.60185E5,1.07026E5,2.86229E5,2.55986E5,1.09788E5,1.01994E5,1.75482E5,1.39738E5,7.3028E4,5.2522E4,1.31018E5,9.678E4,5.4045E4,3.6535E4,8.7866E4,5.2919E4,3.3503E4,2.1655E4,5.3315E4,3.4414E4,6E0,5.2757E4,2.1582E4,1.3218E4,1.1624E4,8.857E3,2.932E4,1.483E4,1.8783E4,7.802E3,1.0575E4,3.282E3,8.221E3,5.221E3,1.4173E4,3.31E3,4.488E3,7.16E2,3.457E3,4.349E3,3.573E3,2.634E3,6.95E2,4.1E1,2.41E2,9E0,2.769E3,2.047E3,2.68E2,7.06E2,2.98E2,2.35E2,4.64E2,3.42E2,1.294E3,1.985E3,3.96E2,4.98E2],"tree_param":{"num_deleted":"0","num_feature":"42","num_nodes":"127","size_leaf_vector":"1"}},{"base_weights":[1.7959643E-5,-6.110263E-1,3.0793678E1,-1.3118614E0,6.1219134E0,2.5396793E1,8.94307E1,-1.7357084E0,6.1907196E-1,4.4016356E0,1.0529608E1,2.1410168E1,4.3423115E1,7.011898E1,1.14009605E2,-1.8525999E0,-9.944408E-1,2.5359685E-2,1.4888273E0,3.3633232E0,5.867556E0,9.196692E0,1.3879333E1,1.851379E1,2.718149E1,3.8505474E1,5.591572E1,5.6082268E1,7.3880424E1,8.957858E1,1.3071774E2,-1.8660132E0,-1.5788252E0,-1.0098633E0,2.4843102E0,-1.7855367E-1,5.5130064E-1,1.118719E0,2.4117308E0,2.780838E0,4.818391E0,5.054839E0,7.915944E0,7.8218374E0,1.0957343E1,1.2086174E1,1.6893816E1,1.6342964E1,2.3993946E1,2.4197958E1,3.4819954E1,3.417427E1,4.529735E1,4.930358E1,6.695534E1,2.9128311E1,5.7798252E1,7.0400566E1,8.9056076E1,8.0215546E1,1.0025328E2,1.1851015E2,1.5207368E2,-9.341032E-2,-8.9337565E-2,-8.248338E-2,-7.390596E-2,-5.9378214E-2,-3.8647026E-2,1.5832292E-1,-5.634902E-2,-2.2609329E-2,6.0540545E-3,9.213708E-3,5.127525E-2,3.927627E-2,7.8524955E-2,9.770585E-2,1.5141954E-1,1.2155347E-1,1.6814955E-1,2.37125E-1,5.978806E-1,2.2193599E-1,2.943479E-1,3.655538E-1,4.6768323E-1,3.474149E-1,4.1621152E-1,5.203839E-1,6.3997597E-1,5.631683E-1,7.0202154E-1,7.814576E-1,9.958445E-1,7.4970585E-1,9.5268553E-1,1.1129655E0,1.4415381E0,1.0428098E0,1.2959551E0,1.5319697E0,1.9702952E0,1.5611954E0,1.9224379E0,2.0976374E0,2.5674076E0,2.2317302E0,2.8946512E0,3.0127416E0,3.6511834E0,1.2172241E0,4.1186533E0,2.711254E0,3.7408605E0,3.1021824E0,3.7262242E0,1.851538E0,4.625734E0,3.256955E0,4.2007756E0,4.234616E0,5.2172923E0,5.2000046E0,6.9802446E0,5.0582056E0,7.9666457E0],"categories":[],"categories_nodes":[],"categories_segments":[],"categories_sizes":[],"default_left":[1,1,0,0,0,0,1,1,1,0,0,0,0,0,0,0,0,0,0,0,0,0,0,0,0,1,1,0,0,0,0,0,0,0,1,0,0,0,0,0,1,1,1,1,1,1,1,0,1,1,1,1,0,1,0,0,0,0,0,0,0,0,1,0,0,0,0,0,0,0,0,0,0,0,0,0,0,0,0,0,0,0,0,0,0,0,0,0,0,0,0,0,0,0,0,0,0,0,0,0,0,0,0,0,0,0,0,0,0,0,0,0,0,0,0,0,0,0,0,0,0,0,0,0,0,0,0],"id":1,"left_children":[1,3,5,7,9,11,13,15,17,19,21,23,25,27,29,31,33,35,37,39,41,43,45,47,49,51,53,55,57,59,61,63,65,67,69,71,73,75,77,79,81,83,85,87,89,91,93,95,97,99,101,103,105,107,109,111,113,115,117,119,121,123,125,-1,-1,-1,-1,-1,-1,-1,-1,-1,-1,-1,-1,-1,-1,-1,-1,-1,-1,-1,-1,-1,-1,-1,-1,-1,-1,-1,-1,-1,-1,-1,-1,-1,-1,-1,-1,-1,-1,-1,-1,-1,-1,-1,-1,-1,-1,-1,-1,-1,-1,-1,-1,-1,-1,-1,-1,-1,-1,-1,-1,-1,-1,-1,-1],"loss_changes":[1.420668E8,3.493381E7,4.648688E7,5.487785E6,5.292224E6,9.6666E6,5.868776E6,4.76424E5,6.232361E5,7.64108E5,8.747E5,1.840992E6,1.494504E6,3.62068E5,2.211336E6,1.7438E4,4.0184625E4,7.692675E4,1.67244E5,2.4906475E5,3.464815E5,3.39203E5,3.01263E5,8.72272E5,8.38042E5,5.1278E5,4.98836E5,6.6308E4,2.82438E5,2.13342E5,8.24576E5,7.84E2,1.5801875E3,3.1391875E4,8.1476855E3,4.2379586E4,3.487906E4,5.2606812E4,3.95435E4,4.2724875E4,4.5460625E4,7.6378E4,5.134875E4,3.44845E4,6.2097E4,5.60775E4,7.92065E4,1.91839E5,1.73965E5,1.51729E5,1.96972E5,1.33489E5,1.35562E5,1.70103E5,1.00261E5,2.0918906E4,7.9924E4,1.48806E5,1.793885E5,6.24165E4,5.6821E4,6.16328E5,4.1701E5,0E0,0E0,0E0,0E0,0E0,0E0,0E0,0E0,0E0,0E0,0E0,0E0,0E0,0E0,0E0,0E0,0E0,0E0,0E0,0E0,0E0,0E0,0E0,0E0,0E0,0E0,0E0,0E0,0E0,0E0,0E0,0E0,0E0,0E0,0E0,0E0,0E0,0E0,0E0,0E0,0E0,0E0,0E0,0E0,0E0,0E0,0E0,0E0,0E0,0E0,0E0,0E0,0E0,0E0,0E0,0E0,0E0,0E0,0E0,0E0,0E0,0E0,0E0,0E0],"parents":[2147483647,0,0,1,1,2,2,3,3,4,4,5,5,6,6,7,7,8,8,9,9,10,10,11,11,12,12,13,13,14,14,15,15,16,16,17,17,18,18,19,19,20,20,21,21,22,22,23,23,24,24,25,25,26,26,27,27,28,28,29,29,30,30,31,31,32,32,33,33,34,34,35,35,36,36,37,37,38,38,39,39,40,40,41,41,42,42,43,43,44,44,45,45,46,46,47,47,48,48,49,49,50,50,51,51,52,52,53,53,54,54,55,55,56,56,57,57,58,58,59,59,60,60,61,61,62,62],"right_children":[2,4,6,8,10,12,14,16,18,20,22,24,26,28,30,32,34,36,38,40,42,44,46,48,50,52,54,56,58,60,62,64,66,68,70,72,74,76,78,80,82,84,86,88,90,92,94,96,98,100,102,104,106,108,110,112,114,116,118,120,122,124,126,-1,-1,-1,-1,-1,-1,-1,-1,-1,-1,-1,-1,-1,-1,-1,-1,-1,-1,-1,-1,-1,-1,-1,-1,-1,-1,-1,-1,-1,-1,-1,-1,-1,-1,-1,-1,-1,-1,-1,-1,-1,-1,-1,-1,-1,-1,-1,-1,-1,-1,-1,-1,-1,-1,-1,-1,-1,-1,-1,-1,-1,-1,-1,-1],"split_conditions":[1.7859594E1,4.4818077E0,6.712045E1,1.2823921E0,9.929736E0,3.846801E1,8.7E1,5.0814015E-1,2.6607726E0,6.681144E0,1E0,2.6650911E1,1E0,7.085714E1,3.6594845E1,9.3867525E-2,3.7112389E0,1E0,1E0,1E0,1E0,1.31833105E1,1.3687873E1,1E0,1E0,5.057143E1,6.5E1,4.1285713E1,1E0,1E0,1E0,6.383276E-10,2.6310694E-1,8.40779E-1,1.4285715E-1,1.9319413E0,1.9555978E0,3.5481849E0,3.5481849E0,5.6781263E0,1.0571428E1,8.428572E0,1.3E1,1.0571428E1,1.7571428E1,1.8E1,2.4E1,2.2895508E1,3.4E1,2.8571428E1,3.7E1,4.1E1,5.3E1,5.057143E1,5.057143E1,1.0609E2,1E0,5.3E1,2.3E1,7.085714E1,7.085714E1,5.1E1,3.7260498E1,-9.341032E-2,-8.9337565E-2,-8.248338E-2,-7.390596E-2,-5.9378214E-2,-3.8647026E-2,1.5832292E-1,-5.634902E-2,-2.2609329E-2,6.0540545E-3,9.213708E-3,5.127525E-2,3.927627E-2,7.8524955E-2,9.770585E-2,1.5141954E-1,1.2155347E-1,1.6814955E-1,2.37125E-1,5.978806E-1,2.2193599E-1,2.943479E-1,3.655538E-1,4.6768323E-1,3.474149E-1,4.1621152E-1,5.203839E-1,6.3997597E-1,5.631683E-1,7.0202154E-1,7.814576E-1,9.958445E-1,7.4970585E-1,9.5268553E-1,1.1129655E0,1.4415381E0,1.0428098E0,1.2959551E0,1.5319697E0,1.9702952E0,1.5611954E0,1.9224379E0,2.0976374E0,2.5674076E0,2.2317302E0,2.8946512E0,3.0127416E0,3.6511834E0,1.2172241E0,4.1186533E0,2.711254E0,3.7408605E0,3.1021824E0,3.7262242E0,1.851538E0,4.625734E0,3.256955E0,4.2007756E0,4.234616E0,5.2172923E0,5.2000046E0,6.9802446E0,5.0582056E0,7.9666457E0],"split_indices":[30,30,30,30,30,30,17,27,30,30,8,30,8,20,27,27,27,8,8,8,8,30,30,8,8,20,17,20,8,8,8,27,30,30,41,30,30,30,30,30,20,20,17,20,20,17,17,30,17,20,17,17,17,20,20,4,8,17,17,20,20,0,25,0,0,0,0,0,0,0,0,0,0,0,0,0,0,0,0,0,0,0,0,0,0,0,0,0,0,0,0,0,0,0,0,0,0,0,0,0,0,0,0,0,0,0,0,0,0,0,0,0,0,0,0,0,0,0,0,0,0,0,0,0,0,0,0],"split_type":[0,0,0,0,0,0,0,0,0,0,0,0,0,0,0,0,0,0,0,0,0,0,0,0,0,0,0,0,0,0,0,0,0,0,0,0,0,0,0,0,0,0,0,0,0,0,0,0,0,0,0,0,0,0,0,0,0,0,0,0,0,0,0,0,0,0,0,0,0,0,0,0,0,0,0,0,0,0,0,0,0,0,0,0,0,0,0,0,0,0,0,0,0,0,0,0,0,0,0,0,0,0,0,0,0,0,0,0,0,0,0,0,0,0,0,0,0,0,0,0,0,0,0,0,0,0,0],"sum_hessian":[7.550201E6,7.403297E6,1.46904E5,6.705336E6,6.97961E5,1.34524E5,1.238E4,5.498414E6,1.206922E6,5.02027E5,1.95934E5,1.10163E5,2.4361E4,6.935E3,5.445E3,4.749463E6,7.48951E5,7.17288E5,4.89634E5,2.93877E5,2.0815E5,1.40164E5,5.577E4,7.3354E4,3.6809E4,1.7483E4,6.878E3,1.469E3,5.466E3,2.214E3,3.231E3,4.527632E6,2.21831E5,7.45646E5,3.305E3,5.16886E5,2.00402E5,3.49484E5,1.4015E5,2.09867E5,8.401E4,1.49026E5,5.9124E4,7.8708E4,6.1456E4,3.4972E4,2.0798E4,5.2544E4,2.081E4,2.6473E4,1.0336E4,1.0679E4,6.804E3,4.305E3,2.573E3,8.9E1,1.38E3,4.451E3,1.015E3,1.184E3,1.03E3,2.06E3,1.171E3,4.405701E6,1.21931E5,1.30215E5,9.1616E4,4.26072E5,3.19574E5,2.78E3,5.25E2,2.70165E5,2.46721E5,1.12968E5,8.7434E4,2.01142E5,1.48342E5,8.0452E4,5.9698E4,1.31103E5,7.8764E4,8.3128E4,8.82E2,8.563E4,6.3396E4,4.162E4,1.7504E4,2.8744E4,4.9964E4,4.7338E4,1.4118E4,2.4615E4,1.0357E4,1.4668E4,6.13E3,3.509E4,1.7454E4,1.5321E4,5.489E3,9.004E3,1.7469E4,5.411E3,4.925E3,6.323E3,4.356E3,4.387E3,2.417E3,2.793E3,1.512E3,1.228E3,1.345E3,8.3E1,6E0,1.144E3,2.36E2,1.476E3,2.975E3,6.4E1,9.51E2,2.42E2,9.42E2,2.19E2,8.11E2,1.224E3,8.36E2,1.48E2,1.023E3],"tree_param":{"num_deleted":"0","num_feature":"42","num_nodes":"127","size_leaf_vector":"1"}},{"base_weights":[3.0971045E-5,-5.569735E-1,3.0670033E1,-1.223701E0,6.253301E0,2.5213848E1,8.500605E1,-1.6429393E0,7.0341873E-1,4.3871894E0,1.0316186E1,2.1117918E1,4.1607086E1,8.328807E1,3.8370197E2,-1.6475009E0,2.0377775E1,6.544691E-1,2.399437E1,4.248993E0,4.701957E1,1.010882E1,6.1597126E1,2.0780016E1,9.559343E1,4.0866547E1,1.8903435E2,6.630975E1,1.0141617E2,2.2630974E2,4.421327E2,-1.7570466E0,-9.291265E-1,9.713144E1,1.6134108E1,1.0492125E-1,1.5696732E0,2.2296345E1,1.0451561E2,3.3813214E0,5.6757107E0,3.4704994E1,7.047802E1,8.780497E0,1.3495986E1,6.009109E1,3.3053753E1,1.834617E1,2.7097427E1,8.326108E1,1.6337512E2,3.5980194E1,5.365257E1,3.5120102E2,1.4573637E2,6.040191E1,8.465979E1,8.7033646E1,1.2366935E2,2.3456808E1,1.7605768E2,4.687698E2,8.433276E0,-8.865804E-2,-7.281182E-2,-5.6278206E-2,-3.595554E-2,2.955846E1,2.5643215E0,7.8576106E-1,6.2966456E0,-5.6873118E-3,3.329454E-2,5.896009E-2,1.2738042E-1,9.5211613E-1,1.6024338E0,1.3798993E1,3.8075573E0,1.3892324E-1,2.4559443E-1,2.4111448E-1,3.929825E-1,1.6546872E0,5.868383E0,2.558068E0,1.1507251E1,3.7701887E-1,5.5212516E-1,5.85284E-1,8.410403E-1,2.688648E0,7.201153E0,7.856841E-1,1.1343966E0,1.1746227E0,1.6623124E0,5.0611367E0,2.5223196E0,1.5384238E1,6.146803E0,1.5774673E0,2.094719E0,2.3282382E0,3.0713334E0,8.443509E0,3.979637E1,8.766331E0,5.9189515E0,1.6432532E0,3.1225169E0,2.1135032E0,4.4644055E0,3.9438875E0,5.2780027E0,4.006952E0,6.8880153E0,5.6254187E0,1.0187621E1,1.1340843E1,2.536856E1],"categories":[],"categories_nodes":[],"categories_segments":[],"categories_sizes":[],"default_left":[1,1,0,0,0,0,0,0,0,0,0,0,0,0,0,0,0,1,1,0,0,0,1,0,1,0,0,0,1,0,0,0,0,0,0,0,0,0,0,0,0,1,0,0,0,1,0,0,0,0,0,1,1,0,0,0,0,0,0,0,0,0,0,0,0,0,0,0,0,0,0,0,0,0,0,0,0,0,0,0,0,0,0,0,0,0,0,0,0,0,0,0,0,0,0,0,0,0,0,0,0,0,0,0,0,0,0,0,0,0,0,0,0,0,0,0,0,0,0,0,0],"id":2,"left_children":[1,3,5,7,9,11,13,15,17,19,21,23,25,27,29,31,33,35,37,39,41,43,45,47,49,51,53,55,57,59,61,63,65,67,69,71,73,75,77,79,81,83,85,87,89,91,-1,93,95,97,99,101,103,105,107,109,111,113,115,-1,117,119,-1,-1,-1,-1,-1,-1,-1,-1,-1,-1,-1,-1,-1,-1,-1,-1,-1,-1,-1,-1,-1,-1,-1,-1,-1,-1,-1,-1,-1,-1,-1,-1,-1,-1,-1,-1,-1,-1,-1,-1,-1,-1,-1,-1,-1,-1,-1,-1,-1,-1,-1,-1,-1,-1,-1,-1,-1,-1,-1],"loss_changes":[1.289826E8,3.367094E7,3.992459E7,5.456937E6,5.013388E6,8.216864E6,6.274192E6,5.57276E5,1.3758724E6,2.669455E6,2.212522E6,2.462284E6,2.663264E6,3.7544E6,5.43699E5,4.36464E5,3.7268172E5,6.057006E5,3.4372575E5,5.59103E5,4.204755E5,9.3251E5,7.1685175E5,1.498348E6,3.5586875E5,1.519008E6,8.05439E5,6.79274E5,1.880132E6,1.73658E5,2.85153E5,2.3326E4,3.02745E4,1.328631E6,4.81535E4,9.2302414E4,1.7253112E5,7.809075E4,2.3188538E5,2.5913825E5,3.1831E5,1.24245E5,1.5395945E6,4.17597E5,3.47359E5,4.36111E5,0E0,8.03992E5,6.00126E5,2.1651075E5,3.531695E5,4.60304E5,3.67916E5,1.892775E6,5.8577E4,2.6752E5,2.97382E5,5.34422E5,1.410172E6,0E0,1.05158125E4,3.05208E5,0E0,0E0,0E0,0E0,0E0,0E0,0E0,0E0,0E0,0E0,0E0,0E0,0E0,0E0,0E0,0E0,0E0,0E0,0E0,0E0,0E0,0E0,0E0,0E0,0E0,0E0,0E0,0E0,0E0,0E0,0E0,0E0,0E0,0E0,0E0,0E0,0E0,0E0,0E0,0E0,0E0,0E0,0E0,0E0,0E0,0E0,0E0,0E0,0E0,0E0,0E0,0E0,0E0,0E0,0E0,0E0,0E0,0E0,0E0],"parents":[2147483647,0,0,1,1,2,2,3,3,4,4,5,5,6,6,7,7,8,8,9,9,10,10,11,11,12,12,13,13,14,14,15,15,16,16,17,17,18,18,19,19,20,20,21,21,22,22,23,23,24,24,25,25,26,26,27,27,28,28,29,29,30,30,31,31,32,32,33,33,34,34,35,35,36,36,37,37,38,38,39,39,40,40,41,41,42,42,43,43,44,44,45,45,47,47,48,48,49,49,50,50,51,51,52,52,53,53,54,54,55,55,56,56,57,57,58,58,60,60,61,61],"right_children":[2,4,6,8,10,12,14,16,18,20,22,24,26,28,30,32,34,36,38,40,42,44,46,48,50,52,54,56,58,60,62,64,66,68,70,72,74,76,78,80,82,84,86,88,90,92,-1,94,96,98,100,102,104,106,108,110,112,114,116,-1,118,120,-1,-1,-1,-1,-1,-1,-1,-1,-1,-1,-1,-1,-1,-1,-1,-1,-1,-1,-1,-1,-1,-1,-1,-1,-1,-1,-1,-1,-1,-1,-1,-1,-1,-1,-1,-1,-1,-1,-1,-1,-1,-1,-1,-1,-1,-1,-1,-1,-1,-1,-1,-1,-1,-1,-1,-1,-1,-1,-1],"split_conditions":[1.910221E1,4.7936125E0,6.759784E1,1.3256592E0,1.0018969E1,3.8833088E1,1E0,1E0,1E0,1E0,1E0,1E0,1E0,8.8E1,6.75E1,3.6415866E-1,3.3333335E-2,2.8982995E0,7.0094395E0,7.1725802E0,4.4E1,5E0,2.68E1,5E0,2.2428556E1,5E0,4.7E1,5E0,8.7E1,6E0,2.857143E-1,7.1710624E-2,8.2702583E-1,9.366E1,8E0,5E0,5E0,4.5E1,2.6333334E0,5E0,5E0,1.3889526E1,9.911E1,1.439048E1,1.439048E1,1.6034636E1,3.3053753E1,2.6929117E1,2.6929117E1,1.4285715E-1,2.1E1,4.7833332E1,4.7833332E1,4.9E1,1.4285715E-1,2.4E1,3E1,5E0,3.716599E1,2.3456808E1,1E0,3.716599E1,8.433276E0,-8.865804E-2,-7.281182E-2,-5.6278206E-2,-3.595554E-2,2.955846E1,2.5643215E0,7.8576106E-1,6.2966456E0,-5.6873118E-3,3.329454E-2,5.896009E-2,1.2738042E-1,9.5211613E-1,1.6024338E0,1.3798993E1,3.8075573E0,1.3892324E-1,2.4559443E-1,2.4111448E-1,3.929825E-1,1.6546872E0,5.868383E0,2.558068E0,1.1507251E1,3.7701887E-1,5.5212516E-1,5.85284E-1,8.410403E-1,2.688648E0,7.201153E0,7.856841E-1,1.1343966E0,1.1746227E0,1.6623124E0,5.0611367E0,2.5223196E0,1.5384238E1,6.146803E0,1.5774673E0,2.094719E0,2.3282382E0,3.0713334E0,8.443509E0,3.979637E1,8.766331E0,5.9189515E0,1.6432532E0,3.1225169E0,2.1135032E0,4.4644055E0,3.9438875E0,5.2780027E0,4.006952E0,6.8880153E0,5.6254187E0,1.0187621E1,1.1340843E1,2.536856E1],"split_indices":[28,28,28,28,28,28,3,3,3,3,3,3,3,15,24,28,24,28,31,28,11,7,24,7,31,7,15,7,19,10,41,28,28,33,15,7,7,11,24,7,7,31,4,28,28,31,0,28,28,41,15,24,24,11,41,18,15,7,31,0,35,31,0,0,0,0,0,0,0,0,0,0,0,0,0,0,0,0,0,0,0,0,0,0,0,0,0,0,0,0,0,0,0,0,0,0,0,0,0,0,0,0,0,0,0,0,0,0,0,0,0,0,0,0,0,0,0,0,0,0,0],"split_type":[0,0,0,0,0,0,0,0,0,0,0,0,0,0,0,0,0,0,0,0,0,0,0,0,0,0,0,0,0,0,0,0,0,0,0,0,0,0,0,0,0,0,0,0,0,0,0,0,0,0,0,0,0,0,0,0,0,0,0,0,0,0,0,0,0,0,0,0,0,0,0,0,0,0,0,0,0,0,0,0,0,0,0,0,0,0,0,0,0,0,0,0,0,0,0,0,0,0,0,0,0,0,0,0,0,0,0,0,0,0,0,0,0,0,0,0,0,0,0,0,0],"sum_hessian":[7.550201E6,7.415527E6,1.34674E5,6.754282E6,6.61245E5,1.22386E5,1.2288E4,5.547453E6,1.206829E6,4.53124E5,2.08121E5,9.7922E4,2.4464E4,1.2219E4,6.9E1,5.546305E6,1.148E3,1.204299E6,2.53E3,4.51661E5,1.463E3,2.07284E5,8.37E2,9.7481E4,4.41E2,2.4343E4,1.21E2,6.312E3,5.907E3,2E1,4.9E1,4.812448E6,7.33857E5,5.9E1,1.089E3,7.52469E5,4.5183E5,2.479E3,5.1E1,2.80858E5,1.70803E5,9.61E2,5.02E2,1.48896E5,5.8388E4,8.36E2,1E0,7.0373E4,2.7108E4,3.75E2,6.6E1,1.7615E4,6.728E3,2.4E1,9.7E1,4.778E3,1.534E3,3.591E3,2.316E3,2E0,1.8E1,4.4E1,5E0,4.567751E6,2.44697E5,3.79184E5,3.54673E5,4E0,5.5E1,1.086E3,3E0,5.41422E5,2.11047E5,3.22903E5,1.28927E5,1.861E3,6.18E2,6E0,4.5E1,2.01496E5,7.9362E4,1.22814E5,4.7989E4,9.44E2,1.7E1,4.49E2,5.3E1,9.6174E4,5.2722E4,3.7955E4,2.0433E4,7.79E2,5.7E1,4.3813E4,2.656E4,1.7092E4,1.0016E4,2.41E2,1.34E2,1.3E1,5.3E1,1.0074E4,7.541E3,3.523E3,3.205E3,1.8E1,6E0,4.4E1,5.3E1,3.32E2,4.446E3,1.52E2,1.382E3,2.497E3,1.094E3,5.68E2,1.748E3,7E0,1.1E1,7E0,3.7E1],"tree_param":{"num_deleted":"0","num_feature":"42","num_nodes":"121","size_leaf_vector":"1"}},{"base_weights":[7.5672884E-5,-5.533427E-1,2.7866844E1,-1.2064023E0,5.374678E0,2.3041851E1,8.0765175E1,-1.5774547E0,4.728896E-1,3.6625512E0,9.0722685E0,1.828407E1,3.575012E1,6.413381E1,9.84385E1,-1.67191E0,-9.335341E-1,-6.3771464E-2,1.195815E0,2.8971019E0,4.9904833E0,7.8848367E0,1.2097631E1,1.6120565E1,2.3889174E1,3.15797E1,4.65325E1,5.877183E1,8.081603E1,1.3254716E2,8.764243E1,-1.6839488E0,-1.4232315E0,-1.1481993E0,-7.725153E-1,-2.4714519E-1,4.0679237E-1,8.682244E-1,2.0156088E0,2.374873E0,4.207896E0,4.254723E0,6.8671303E0,6.7185855E0,9.877532E0,1.0376066E1,1.5085267E1,1.3496509E1,1.8733725E1,2.0378393E1,2.7506561E1,2.7553532E1,3.9607964E1,4.0657024E1,5.8588673E1,4.0667595E1,6.1116444E1,4.0170376E1,8.524458E1,7.583697E1,1.728666E2,7.75123E1,1.10880806E2,-8.3004914E-2,-8.45552E-2,-7.4338004E-2,-6.688239E-2,-5.815784E-2,-2.0709904E-3,-4.459779E-2,-2.4088232E-2,-2.4830483E-2,4.3542703E-4,4.870969E-3,4.2045053E-2,2.8861955E-2,6.2808424E-2,8.064837E-2,1.3035482E-1,1.0192181E-1,1.4547043E-1,1.8538497E-1,2.5107163E-1,1.8634982E-1,2.3587441E-1,2.2737145E-1,3.5584435E-1,3.087363E-1,3.901272E-1,4.9244747E-1,3.621044E0,4.7290954E-1,5.832348E-1,4.8135492E-1,7.782232E-1,6.659338E-1,9.7178394E-1,8.56702E-1,1.015231E0,1.0330195E0,5.344665E-1,1.2076725E0,1.4679368E0,1.2511302E0,1.503209E0,1.7553164E0,2.06841E0,1.690382E0,2.1799638E0,2.5515802E0,3.2194638E0,2.5117917E0,1.0113783E0,2.630267E0,3.1685696E0,2.693194E0,8.0813295E-1,3.68245E0,4.650841E0,3.3800397E0,4.717376E0,2.3049567E0,8.836113E0,3.3232067E0,4.2607484E0,4.4066024E0,6.4514885E0],"categories":[],"categories_nodes":[],"categories_segments":[],"categories_sizes":[],"default_left":[1,1,0,0,0,0,0,0,1,0,0,0,0,0,0,1,0,0,0,0,0,0,0,0,0,0,0,0,0,0,0,0,0,0,0,0,0,0,0,0,0,0,0,0,0,0,0,0,0,0,0,0,0,0,0,0,1,0,1,0,0,1,1,0,0,0,0,0,0,0,0,0,0,0,0,0,0,0,0,0,0,0,0,0,0,0,0,0,0,0,0,0,0,0,0,0,0,0,0,0,0,0,0,0,0,0,0,0,0,0,0,0,0,0,0,0,0,0,0,0,0,0,0,0,0,0,0],"id":3,"left_children":[1,3,5,7,9,11,13,15,17,19,21,23,25,27,29,31,33,35,37,39,41,43,45,47,49,51,53,55,57,59,61,63,65,67,69,71,73,75,77,79,81,83,85,87,89,91,93,95,97,99,101,103,105,107,109,111,113,115,117,119,121,123,125,-1,-1,-1,-1,-1,-1,-1,-1,-1,-1,-1,-1,-1,-1,-1,-1,-1,-1,-1,-1,-1,-1,-1,-1,-1,-1,-1,-1,-1,-1,-1,-1,-1,-1,-1,-1,-1,-1,-1,-1,-1,-1,-1,-1,-1,-1,-1,-1,-1,-1,-1,-1,-1,-1,-1,-1,-1,-1,-1,-1,-1,-1,-1,-1],"loss_changes":[1.164391E8,2.8660314E7,3.7523424E7,4.155204E6,4.650776E6,8.145848E6,3.605808E6,3.3219E5,4.682019E5,5.10387E5,8.35162E5,1.188454E6,1.648864E6,5.61826E5,2.18162E6,1.4258E4,2.4149188E4,5.976709E4,1.3808369E5,2.1803475E5,2.534855E5,3.87978E5,3.36906E5,4.84788E5,3.46146E5,8.54438E5,7.2255E5,2.01134E5,2.73418E5,3.256618E6,1.057096E6,7.71E2,1.1938438E3,4.95725E3,1.3863797E4,3.1811852E4,2.608476E4,4.147078E4,3.4957812E4,4.0958E4,3.6909375E4,3.219375E4,2.992575E4,6.20475E4,1.0948E5,4.9069E4,6.25055E4,3.70225E4,8.8707E4,3.7643E4,8.278E4,1.1128E5,6.8579E4,1.37257E5,1.43608E5,1.0713694E5,7.8138E4,4.942811E4,1.18061E5,8.448575E4,3.99978E5,2.62912E5,5.55082E5,0E0,0E0,0E0,0E0,0E0,0E0,0E0,0E0,0E0,0E0,0E0,0E0,0E0,0E0,0E0,0E0,0E0,0E0,0E0,0E0,0E0,0E0,0E0,0E0,0E0,0E0,0E0,0E0,0E0,0E0,0E0,0E0,0E0,0E0,0E0,0E0,0E0,0E0,0E0,0E0,0E0,0E0,0E0,0E0,0E0,0E0,0E0,0E0,0E0,0E0,0E0,0E0,0E0,0E0,0E0,0E0,0E0,0E0,0E0,0E0,0E0,0E0,0E0,0E0],"parents":[2147483647,0,0,1,1,2,2,3,3,4,4,5,5,6,6,7,7,8,8,9,9,10,10,11,11,12,12,13,13,14,14,15,15,16,16,17,17,18,18,19,19,20,20,21,21,22,22,23,23,24,24,25,25,26,26,27,27,28,28,29,29,30,30,31,31,32,32,33,33,34,34,35,35,36,36,37,37,38,38,39,39,40,40,41,41,42,42,43,43,44,44,45,45,46,46,47,47,48,48,49,49,50,50,51,51,52,52,53,53,54,54,55,55,56,56,57,57,58,58,59,59,60,60,61,61,62,62],"right_children":[2,4,6,8,10,12,14,16,18,20,22,24,26,28,30,32,34,36,38,40,42,44,46,48,50,52,54,56,58,60,62,64,66,68,70,72,74,76,78,80,82,84,86,88,90,92,94,96,98,100,102,104,106,108,110,112,114,116,118,120,122,124,126,-1,-1,-1,-1,-1,-1,-1,-1,-1,-1,-1,-1,-1,-1,-1,-1,-1,-1,-1,-1,-1,-1,-1,-1,-1,-1,-1,-1,-1,-1,-1,-1,-1,-1,-1,-1,-1,-1,-1,-1,-1,-1,-1,-1,-1,-1,-1,-1,-1,-1,-1,-1,-1,-1,-1,-1,-1,-1,-1,-1,-1,-1,-1,-1],"split_conditions":[1.8082773E1,4.3173556E0,6.759784E1,1.1954752E0,9.255464E0,3.3217167E1,8.8E1,2.2740017E-1,2.4943845E0,6.6196547E0,5E0,5E0,5E0,5E0,2.60893E5,2.6166013E-1,6.588558E-1,5E0,5E0,5E0,5E0,1.3324572E1,1.3324572E1,2.3101711E1,2.3101711E1,4.805495E1,4.805495E1,3.4E1,3E1,2.26126E5,5E0,1.162761E6,2.0320927E-1,3E0,5E0,1.7952286E0,1.8666667E0,3.376354E0,3.4210126E0,5.533535E0,5.533535E0,7.6432424E0,3E0,1.1636051E1,1.246498E6,1.1277682E1,6E0,1E0,2.6929117E1,2.6917162E1,2.4E1,3.8833088E1,4.1E1,3.2E1,5.4E1,4.9E1,7.085714E1,4.9E1,2.7576733E1,5E0,7.085714E1,3.7260498E1,3.7260498E1,-8.3004914E-2,-8.45552E-2,-7.4338004E-2,-6.688239E-2,-5.815784E-2,-2.0709904E-3,-4.459779E-2,-2.4088232E-2,-2.4830483E-2,4.3542703E-4,4.870969E-3,4.2045053E-2,2.8861955E-2,6.2808424E-2,8.064837E-2,1.3035482E-1,1.0192181E-1,1.4547043E-1,1.8538497E-1,2.5107163E-1,1.8634982E-1,2.3587441E-1,2.2737145E-1,3.5584435E-1,3.087363E-1,3.901272E-1,4.9244747E-1,3.621044E0,4.7290954E-1,5.832348E-1,4.8135492E-1,7.782232E-1,6.659338E-1,9.7178394E-1,8.56702E-1,1.015231E0,1.0330195E0,5.344665E-1,1.2076725E0,1.4679368E0,1.2511302E0,1.503209E0,1.7553164E0,2.06841E0,1.690382E0,2.1799638E0,2.5515802E0,3.2194638E0,2.5117917E0,1.0113783E0,2.630267E0,3.1685696E0,2.693194E0,8.0813295E-1,3.68245E0,4.650841E0,3.3800397E0,4.717376E0,2.3049567E0,8.836113E0,3.3232067E0,4.2607484E0,4.4066024E0,6.4514885E0],"split_indices":[28,28,28,28,28,28,15,26,28,28,7,7,7,7,1,29,28,7,7,7,7,28,28,28,28,28,28,15,15,1,7,1,28,15,7,28,28,28,28,28,28,28,15,28,1,28,15,13,28,29,15,28,15,15,15,11,20,11,21,7,20,25,25,0,0,0,0,0,0,0,0,0,0,0,0,0,0,0,0,0,0,0,0,0,0,0,0,0,0,0,0,0,0,0,0,0,0,0,0,0,0,0,0,0,0,0,0,0,0,0,0,0,0,0,0,0,0,0,0,0,0,0,0,0,0,0,0],"split_type":[0,0,0,0,0,0,0,0,0,0,0,0,0,0,0,0,0,0,0,0,0,0,0,0,0,0,0,0,0,0,0,0,0,0,0,0,0,0,0,0,0,0,0,0,0,0,0,0,0,0,0,0,0,0,0,0,0,0,0,0,0,0,0,0,0,0,0,0,0,0,0,0,0,0,0,0,0,0,0,0,0,0,0,0,0,0,0,0,0,0,0,0,0,0,0,0,0,0,0,0,0,0,0,0,0,0,0,0,0,0,0,0,0,0,0,0,0,0,0,0,0,0,0,0,0,0,0],"sum_hessian":[7.550201E6,7.403179E6,1.47022E5,6.668541E6,7.34638E5,1.34734E5,1.2288E4,5.46173E6,1.206811E6,5.02133E5,2.32505E5,9.8034E4,3.67E4,6.333E3,5.955E3,4.763047E6,6.98683E5,6.92636E5,5.14175E5,3.18529E5,1.83604E5,1.66973E5,6.5532E4,7.0735E4,2.7299E4,2.6467E4,1.0233E4,4.796E3,1.537E3,1.429E3,4.526E3,4.543106E6,2.19941E5,2.99454E5,3.99229E5,4.98411E5,1.94225E5,3.67374E5,1.46801E5,2.27782E5,9.0747E4,1.31896E5,5.1708E4,1.05331E5,6.1642E4,4.1578E4,2.3954E4,3.5297E4,3.5438E4,1.3857E4,1.3442E4,1.763E4,8.837E3,6.883E3,3.35E3,5.52E2,4.244E3,1.52E2,1.385E3,5.95E2,8.34E2,3.155E3,1.371E3,1.048466E6,3.49464E6,1.26227E5,9.3714E4,2.95461E5,3.993E3,2.82979E5,1.1625E5,2.52356E5,2.46055E5,1.13406E5,8.0819E4,2.09921E5,1.57453E5,8.7346E4,5.9455E4,1.39798E5,8.7984E4,5.6199E4,3.4548E4,6.1627E4,7.0269E4,5.028E3,4.668E4,7.0144E4,3.5187E4,6.1615E4,2.7E1,2.4287E4,1.7291E4,1.935E3,2.2019E4,3.4274E4,1.023E3,1.7564E4,1.7874E4,1.3464E4,3.93E2,4.788E3,8.654E3,8.785E3,8.845E3,2.49E3,6.347E3,2.072E3,4.811E3,1.459E3,1.891E3,3.75E2,1.77E2,8.94E2,3.35E3,9.6E1,5.6E1,5.6E2,8.25E2,4.15E2,1.8E2,2.5E1,8.09E2,1.3E3,1.855E3,6.11E2,7.6E2],"tree_param":{"num_deleted":"0","num_feature":"42","num_nodes":"127","size_leaf_vector":"1"}},{"base_weights":[8.399343E-5,-5.027699E-1,2.7688423E1,-1.1167915E0,5.52355E0,2.2763712E1,7.6731705E1,-1.4760387E0,6.341961E-1,3.8731694E0,9.310679E0,1.8224758E1,3.4960438E1,5.9061073E1,1.0022439E2,-1.5841732E0,-8.0142504E-1,1.8067297E-1,1.46657E0,3.000541E0,5.127413E0,8.113386E0,1.2356033E1,1.621604E1,2.3574373E1,3.0315187E1,4.5045704E1,5.2389313E1,7.175026E1,7.245511E1,1.1545827E2,-1.599054E0,-1.3065792E0,-9.790577E-1,-5.793341E-1,-2.2124736E-2,7.0070744E-1,1.1185156E0,2.3386981E0,2.4759457E0,4.324819E0,4.387276E0,7.0164204E0,6.9980226E0,1.0148204E1,1.0706933E1,1.5416718E1,1.3832017E1,1.9049366E1,2.1591898E1,2.9048737E1,2.7833183E1,3.670404E1,3.98339E1,5.608366E1,3.1404299E1,5.4785656E1,6.1625637E1,8.285222E1,6.504896E1,8.037324E1,8.592834E1,1.3166328E2,-8.010233E-2,-7.619116E-2,-6.5782644E-2,-2.6252702E-2,-5.3175863E-2,-3.8704854E-2,-3.5484202E-2,-1.3016993E-2,-1.3982648E-2,1.3786824E-2,1.4674072E-2,5.75938E-2,4.2683337E-2,7.397091E-2,9.996125E-2,1.4949246E-1,1.0471201E-1,1.4449202E-1,8.658026E0,2.1602698E-1,1.9255294E-1,2.5408646E-1,3.20896E-1,4.379395E-1,3.1453916E-1,3.9181408E-1,4.660593E-1,5.8142626E-1,4.8605725E-1,6.4416844E-1,6.988345E-1,9.405125E-1,6.408174E-1,7.713763E-1,8.7359613E-1,1.0748807E0,9.975435E-1,1.311848E0,1.2964008E0,1.6496792E0,1.2989161E0,1.7136738E0,1.7457072E0,2.3225982E0,1.734717E0,2.180383E0,2.4423523E0,3.2718987E0,1.3906862E-1,1.9671663E0,2.4703293E0,2.904004E0,2.182324E0,3.2092412E0,3.6358354E0,4.4793477E0,2.2926538E0,3.3611124E0,3.231945E0,4.1425567E0,3.8605237E0,4.709768E0,4.784904E0,7.2702193E0],"categories":[],"categories_nodes":[],"categories_segments":[],"categories_sizes":[],"default_left":[1,1,0,0,0,1,1,0,1,0,0,0,0,0,0,0,0,0,0,0,0,0,0,0,1,0,0,0,0,0,0,0,0,0,0,0,0,0,1,0,0,1,1,0,1,1,1,1,0,0,0,0,0,0,0,0,0,0,1,0,0,0,0,0,0,0,0,0,0,0,0,0,0,0,0,0,0,0,0,0,0,0,0,0,0,0,0,0,0,0,0,0,0,0,0,0,0,0,0,0,0,0,0,0,0,0,0,0,0,0,0,0,0,0,0,0,0,0,0,0,0,0,0,0,0,0,0],"id":4,"left_children":[1,3,5,7,9,11,13,15,17,19,21,23,25,27,29,31,33,35,37,39,41,43,45,47,49,51,53,55,57,59,61,63,65,67,69,71,73,75,77,79,81,83,85,87,89,91,93,95,97,99,101,103,105,107,109,111,113,115,117,119,121,123,125,-1,-1,-1,-1,-1,-1,-1,-1,-1,-1,-1,-1,-1,-1,-1,-1,-1,-1,-1,-1,-1,-1,-1,-1,-1,-1,-1,-1,-1,-1,-1,-1,-1,-1,-1,-1,-1,-1,-1,-1,-1,-1,-1,-1,-1,-1,-1,-1,-1,-1,-1,-1,-1,-1,-1,-1,-1,-1,-1,-1,-1,-1,-1,-1],"loss_changes":[1.051229E8,2.7439612E7,3.2525504E7,4.233313E6,4.285742E6,6.774752E6,5.095624E6,4.07356E5,4.3249828E5,5.22691E5,7.5875E5,9.58104E5,1.553636E6,5.90212E5,2.222716E6,1.9878E4,3.0433062E4,7.821228E4,1.2265294E5,1.9564575E5,2.73923E5,3.38984E5,2.96273E5,4.3778E5,2.63605E5,3.59378E5,5.99794E5,2.29702E5,2.66348E5,1.04493E5,1.617612E6,1.027E3,1.7357188E3,7.4189375E3,1.425457E4,4.0927453E4,3.8227492E4,2.7604938E4,2.5472062E4,3.186425E4,5.699375E4,5.2406E4,5.7464E4,5.71615E4,6.4645E4,8.17685E4,1.00219E5,5.68775E4,1.14055E5,1.35755E5,7.8795E4,1.94699E5,1.09276E5,1.36427E5,2.23847E5,1.0760153E5,7.0299E4,5.54955E4,7.1916E4,3.74675E4,2.97335E4,7.9861E4,1.071352E6,0E0,0E0,0E0,0E0,0E0,0E0,0E0,0E0,0E0,0E0,0E0,0E0,0E0,0E0,0E0,0E0,0E0,0E0,0E0,0E0,0E0,0E0,0E0,0E0,0E0,0E0,0E0,0E0,0E0,0E0,0E0,0E0,0E0,0E0,0E0,0E0,0E0,0E0,0E0,0E0,0E0,0E0,0E0,0E0,0E0,0E0,0E0,0E0,0E0,0E0,0E0,0E0,0E0,0E0,0E0,0E0,0E0,0E0,0E0,0E0,0E0,0E0,0E0,0E0],"parents":[2147483647,0,0,1,1,2,2,3,3,4,4,5,5,6,6,7,7,8,8,9,9,10,10,11,11,12,12,13,13,14,14,15,15,16,16,17,17,18,18,19,19,20,20,21,21,22,22,23,23,24,24,25,25,26,26,27,27,28,28,29,29,30,30,31,31,32,32,33,33,34,34,35,35,36,36,37,37,38,38,39,39,40,40,41,41,42,42,43,43,44,44,45,45,46,46,47,47,48,48,49,49,50,50,51,51,52,52,53,53,54,54,55,55,56,56,57,57,58,58,59,59,60,60,61,61,62,62],"right_children":[2,4,6,8,10,12,14,16,18,20,22,24,26,28,30,32,34,36,38,40,42,44,46,48,50,52,54,56,58,60,62,64,66,68,70,72,74,76,78,80,82,84,86,88,90,92,94,96,98,100,102,104,106,108,110,112,114,116,118,120,122,124,126,-1,-1,-1,-1,-1,-1,-1,-1,-1,-1,-1,-1,-1,-1,-1,-1,-1,-1,-1,-1,-1,-1,-1,-1,-1,-1,-1,-1,-1,-1,-1,-1,-1,-1,-1,-1,-1,-1,-1,-1,-1,-1,-1,-1,-1,-1,-1,-1,-1,-1,-1,-1,-1,-1,-1,-1,-1,-1,-1,-1,-1,-1,-1,-1],"split_conditions":[1.910221E1,4.6492386E0,6.759784E1,1.384691E0,1.0018969E1,3.4E1,8.7E1,3.6415866E-1,2.9716012E0,6.8860564E0,5E0,5E0,5.3E1,8.8E1,8.8E1,7.1710624E-2,8.904481E-1,5E0,5E0,5E0,5E0,1.439048E1,1.439048E1,2.4892004E1,3.7E1,4.805495E1,6.5E1,3.7E1,8.8E1,8.8E1,3.796866E1,5.0255255E-7,2E0,5E0,5E0,2.1442747E0,2.0907443E0,3.8079696E0,4E0,5.6266627E0,1.2333333E0,8.1E0,1.4E1,1.2019969E1,1.6E1,1.8E1,2.5E1,2E1,3.2E1,2.6929117E1,3.7E1,5E0,5E0,4.1E1,6E0,1.2E1,5.3E1,3.4E1,3.6660694E1,3.4E1,7.085714E1,8.8E1,8.8E1,-8.010233E-2,-7.619116E-2,-6.5782644E-2,-2.6252702E-2,-5.3175863E-2,-3.8704854E-2,-3.5484202E-2,-1.3016993E-2,-1.3982648E-2,1.3786824E-2,1.4674072E-2,5.75938E-2,4.2683337E-2,7.397091E-2,9.996125E-2,1.4949246E-1,1.0471201E-1,1.4449202E-1,8.658026E0,2.1602698E-1,1.9255294E-1,2.5408646E-1,3.20896E-1,4.379395E-1,3.1453916E-1,3.9181408E-1,4.660593E-1,5.8142626E-1,4.8605725E-1,6.4416844E-1,6.988345E-1,9.405125E-1,6.408174E-1,7.713763E-1,8.7359613E-1,1.0748807E0,9.975435E-1,1.311848E0,1.2964008E0,1.6496792E0,1.2989161E0,1.7136738E0,1.7457072E0,2.3225982E0,1.734717E0,2.180383E0,2.4423523E0,3.2718987E0,1.3906862E-1,1.9671663E0,2.4703293E0,2.904004E0,2.182324E0,3.2092412E0,3.6358354E0,4.4793477E0,2.2926538E0,3.3611124E0,3.231945E0,4.1425567E0,3.8605237E0,4.709768E0,4.784904E0,7.2702193E0],"split_indices":[28,28,28,28,28,22,17,28,28,28,7,7,17,16,16,28,28,7,7,7,7,28,28,28,17,28,16,15,15,15,21,29,15,7,7,28,28,28,24,28,24,24,17,28,17,17,17,17,15,28,16,7,7,15,7,16,17,15,29,15,20,15,15,0,0,0,0,0,0,0,0,0,0,0,0,0,0,0,0,0,0,0,0,0,0,0,0,0,0,0,0,0,0,0,0,0,0,0,0,0,0,0,0,0,0,0,0,0,0,0,0,0,0,0,0,0,0,0,0,0,0,0,0,0,0,0,0],"split_type":[0,0,0,0,0,0,0,0,0,0,0,0,0,0,0,0,0,0,0,0,0,0,0,0,0,0,0,0,0,0,0,0,0,0,0,0,0,0,0,0,0,0,0,0,0,0,0,0,0,0,0,0,0,0,0,0,0,0,0,0,0,0,0,0,0,0,0,0,0,0,0,0,0,0,0,0,0,0,0,0,0,0,0,0,0,0,0,0,0,0,0,0,0,0,0,0,0,0,0,0,0,0,0,0,0,0,0,0,0,0,0,0,0,0,0,0,0,0,0,0,0,0,0,0,0,0,0],"sum_hessian":[7.550201E6,7.415527E6,1.34674E5,6.729826E6,6.85701E5,1.22386E5,1.2288E4,5.584138E6,1.145688E6,4.7758E5,2.08121E5,8.9195E4,3.3191E4,7.015E3,5.273E3,4.812703E6,7.71435E5,7.41616E5,4.04072E5,2.81637E5,1.95943E5,1.49391E5,5.873E4,6.4849E4,2.4346E4,2.2727E4,1.0464E4,4.601E3,2.414E3,1.87E3,3.403E3,4.567835E6,2.44868E5,4.28616E5,3.42819E5,5.33549E5,2.08067E5,2.88813E5,1.15259E5,2.01728E5,7.9909E4,1.40785E5,5.5158E4,9.65E4,5.2891E4,3.8169E4,2.0561E4,3.522E4,2.9629E4,1.7877E4,6.469E3,1.6372E4,6.355E3,7.111E3,3.353E3,4.73E2,4.128E3,1.266E3,1.148E3,9.71E2,8.99E2,1.208E3,2.195E3,4.393056E6,1.74779E5,2.42057E5,2.811E3,3.03533E5,1.25083E5,2.4337E5,9.9449E4,2.86148E5,2.47401E5,1.0936E5,9.8707E4,1.66575E5,1.22238E5,7.5764E4,3.9495E4,1.04948E5,9.678E4,1E0,7.9908E4,7.9447E4,6.1338E4,4.1059E4,1.4099E4,5.2345E4,4.4155E4,3.3938E4,1.8953E4,2.6274E4,1.1895E4,1.4439E4,6.122E3,2.1526E4,1.3694E4,1.8024E4,1.1605E4,1.3214E4,4.663E3,3.616E3,2.853E3,1.2715E4,3.657E3,5.373E3,9.82E2,3.015E3,4.096E3,1.894E3,1.459E3,1.03E2,3.7E2,1.574E3,2.554E3,1.6E2,1.106E3,4.63E2,6.85E2,1.01E2,8.7E2,1.26E2,7.73E2,5.93E2,6.15E2,6.09E2,1.586E3],"tree_param":{"num_deleted":"0","num_feature":"42","num_nodes":"127","size_leaf_vector":"1"}},{"base_weights":[9.235307E-5,-4.694649E-1,2.6247637E1,-1.0319707E0,5.305555E0,2.1763271E1,7.504369E1,-1.4193896E0,5.1889443E-1,3.810038E0,9.139804E0,1.7114227E1,3.301428E1,6.73106E1,9.43541E1,-1.5094887E0,-7.8907764E-1,-6.7040734E-2,1.2814511E0,3.0151389E0,5.3000937E0,7.9838805E0,1.1769679E1,1.5218066E1,2.1853628E1,2.9013561E1,4.2038525E1,5.6281364E1,7.9563065E1,8.204326E1,1.19992805E2,-1.5200638E0,-1.2883697E0,-9.620986E-1,-4.4257438E-1,-3.703135E-1,2.8259435E-1,1.2352017E0,1.6217716E1,2.5322402E0,4.2167993E0,4.59396E0,7.0578623E0,6.9935274E0,1.0439768E1,1.0396168E1,1.5201364E1,1.321283E1,1.8451916E1,1.8408617E1,2.520149E1,2.5777716E1,3.7118626E1,3.7335556E1,5.358959E1,3.2532063E1,5.8171238E1,6.1958817E1,9.3204956E1,4.2692776E1,8.403406E1,8.48933E1,1.4419313E2,-7.607944E-2,-7.293916E-2,-6.7344084E-2,-5.9801884E-2,-5.3206354E-2,-4.0197276E-2,-2.763508E-2,-8.608553E-4,-6.0500205E-2,-1.4936236E-2,4.27236E-3,3.8741354E-2,4.5499753E-2,1.0578313E-1,4.8018508E-2,1.373299E0,1.0780392E-1,1.6876756E-1,1.8211196E-1,2.6794565E-1,2.1333113E-1,2.8657284E-1,3.2945547E-1,4.193022E-1,3.070743E-1,3.8161716E-1,4.653159E-1,5.820186E-1,4.8594275E-1,6.0676825E-1,9.484784E-1,7.3274875E-1,6.036463E-1,7.5629556E-1,8.6801225E-1,1.0164074E0,9.496787E-1,5.3562486E-1,1.1904218E0,1.4385928E0,1.153671E0,1.4776022E0,1.5876502E0,2.1249077E0,1.4500793E0,2.0071995E0,2.563073E0,3.3863232E0,2.3048632E0,7.084303E-1,2.6056752E0,3.187529E0,3.2127445E0,2.6724966E0,3.551143E0,5.4286594E0,1.1398721E0,3.1457453E0,3.6737206E0,4.677251E0,3.6324697E0,4.521145E0,5.9353533E0,8.171265E0],"categories":[],"categories_nodes":[],"categories_segments":[],"categories_sizes":[],"default_left":[1,1,1,0,1,0,0,0,0,0,1,0,0,1,1,0,0,0,1,0,0,0,0,0,0,0,0,0,0,0,0,0,0,1,1,0,0,0,0,1,1,1,1,0,0,0,0,1,1,0,1,0,1,0,0,0,0,0,0,0,0,0,0,0,0,0,0,0,0,0,0,0,0,0,0,0,0,0,0,0,0,0,0,0,0,0,0,0,0,0,0,0,0,0,0,0,0,0,0,0,0,0,0,0,0,0,0,0,0,0,0,0,0,0,0,0,0,0,0,0,0,0,0,0,0,0,0],"id":5,"left_children":[1,3,5,7,9,11,13,15,17,19,21,23,25,27,29,31,33,35,37,39,41,43,45,47,49,51,53,55,57,59,61,63,65,67,69,71,73,75,77,79,81,83,85,87,89,91,93,95,97,99,101,103,105,107,109,111,113,115,117,119,121,123,125,-1,-1,-1,-1,-1,-1,-1,-1,-1,-1,-1,-1,-1,-1,-1,-1,-1,-1,-1,-1,-1,-1,-1,-1,-1,-1,-1,-1,-1,-1,-1,-1,-1,-1,-1,-1,-1,-1,-1,-1,-1,-1,-1,-1,-1,-1,-1,-1,-1,-1,-1,-1,-1,-1,-1,-1,-1,-1,-1,-1,-1,-1,-1,-1],"loss_changes":[9.3054184E7,2.4095648E7,2.9034824E7,4.0611275E6,3.775138E6,6.356184E6,1.661356E6,3.0713E5,6.036389E5,5.609725E5,5.61485E5,7.72492E5,1.281644E6,1.073636E6,9.97344E5,1.1062E4,4.055003E4,8.100815E4,4.054928E5,1.79217E5,2.0448E5,3.120555E5,2.656955E5,3.98081E5,2.82935E5,6.44796E5,5.90784E5,1.86707E5,9.0129E5,1.65547E5,8.65209E5,4.2E2,1.1651875E3,7.2784375E3,1.0551988E4,2.4592414E4,3.443675E4,1.6756344E5,3.109466E5,6.98685E4,5.808025E4,4.37445E4,2.934275E4,4.97325E4,5.007475E4,4.73355E4,3.291175E4,8.25085E4,4.7797E4,5.43325E4,6.12825E4,1.7896E5,2.01367E5,1.80415E5,1.00368E5,7.706731E4,1.28187E5,2.8841E4,7.17042E5,4.1212266E4,1.99415E5,2.21375E4,2.79594E5,0E0,0E0,0E0,0E0,0E0,0E0,0E0,0E0,0E0,0E0,0E0,0E0,0E0,0E0,0E0,0E0,0E0,0E0,0E0,0E0,0E0,0E0,0E0,0E0,0E0,0E0,0E0,0E0,0E0,0E0,0E0,0E0,0E0,0E0,0E0,0E0,0E0,0E0,0E0,0E0,0E0,0E0,0E0,0E0,0E0,0E0,0E0,0E0,0E0,0E0,0E0,0E0,0E0,0E0,0E0,0E0,0E0,0E0,0E0,0E0,0E0,0E0,0E0,0E0],"parents":[2147483647,0,0,1,1,2,2,3,3,4,4,5,5,6,6,7,7,8,8,9,9,10,10,11,11,12,12,13,13,14,14,15,15,16,16,17,17,18,18,19,19,20,20,21,21,22,22,23,23,24,24,25,25,26,26,27,27,28,28,29,29,30,30,31,31,32,32,33,33,34,34,35,35,36,36,37,37,38,38,39,39,40,40,41,41,42,42,43,43,44,44,45,45,46,46,47,47,48,48,49,49,50,50,51,51,52,52,53,53,54,54,55,55,56,56,57,57,58,58,59,59,60,60,61,61,62,62],"right_children":[2,4,6,8,10,12,14,16,18,20,22,24,26,28,30,32,34,36,38,40,42,44,46,48,50,52,54,56,58,60,62,64,66,68,70,72,74,76,78,80,82,84,86,88,90,92,94,96,98,100,102,104,106,108,110,112,114,116,118,120,122,124,126,-1,-1,-1,-1,-1,-1,-1,-1,-1,-1,-1,-1,-1,-1,-1,-1,-1,-1,-1,-1,-1,-1,-1,-1,-1,-1,-1,-1,-1,-1,-1,-1,-1,-1,-1,-1,-1,-1,-1,-1,-1,-1,-1,-1,-1,-1,-1,-1,-1,-1,-1,-1,-1,-1,-1,-1,-1,-1,-1,-1,-1,-1,-1,-1],"split_conditions":[1.9428572E1,4.857143E0,6.928571E1,1.3032596E0,1.0428572E1,3.4E1,5E0,5.0814015E-1,2.7142856E0,7.5E0,1.5033334E1,5E0,5.057143E1,8.7E1,8.7E1,2.2397088E-1,1E0,1.8571428E0,1.4192847E1,5E0,5E0,5E0,5E0,2.55E1,2.3714285E1,5E0,5E0,1.8E1,3.796866E1,1.1E1,3.796866E1,6.383276E-10,3.958239E-1,7E-1,1.5666667E0,2.857143E-1,5E0,5E0,9.660918E0,6.133333E0,6E0,9.6E0,9.366667E0,1.1733334E1,1.25E1,1.9066668E1,5E0,2.1533333E1,2.93E1,1.4285715E-1,2.93E1,4.1285713E1,3.8733334E1,4.7833332E1,6.75E1,1.4285715E-1,3.716599E1,2.4E1,8.7E1,-1.0307346E-3,3.716599E1,2.2740776E1,8.7E1,-7.607944E-2,-7.293916E-2,-6.7344084E-2,-5.9801884E-2,-5.3206354E-2,-4.0197276E-2,-2.763508E-2,-8.608553E-4,-6.0500205E-2,-1.4936236E-2,4.27236E-3,3.8741354E-2,4.5499753E-2,1.0578313E-1,4.8018508E-2,1.373299E0,1.0780392E-1,1.6876756E-1,1.8211196E-1,2.6794565E-1,2.1333113E-1,2.8657284E-1,3.2945547E-1,4.193022E-1,3.070743E-1,3.8161716E-1,4.653159E-1,5.820186E-1,4.8594275E-1,6.0676825E-1,9.484784E-1,7.3274875E-1,6.036463E-1,7.5629556E-1,8.6801225E-1,1.0164074E0,9.496787E-1,5.3562486E-1,1.1904218E0,1.4385928E0,1.153671E0,1.4776022E0,1.5876502E0,2.1249077E0,1.4500793E0,2.0071995E0,2.563073E0,3.3863232E0,2.3048632E0,7.084303E-1,2.6056752E0,3.187529E0,3.2127445E0,2.6724966E0,3.551143E0,5.4286594E0,1.1398721E0,3.1457453E0,3.6737206E0,4.677251E0,3.6324697E0,4.521145E0,5.9353533E0,8.171265E0],"split_indices":[20,20,22,29,22,22,7,27,22,22,24,7,20,18,19,29,22,20,27,7,7,7,7,22,22,7,7,18,21,18,21,27,27,24,24,20,7,7,21,24,24,24,24,24,22,24,10,24,24,41,24,20,24,24,24,41,31,10,19,34,31,21,18,0,0,0,0,0,0,0,0,0,0,0,0,0,0,0,0,0,0,0,0,0,0,0,0,0,0,0,0,0,0,0,0,0,0,0,0,0,0,0,0,0,0,0,0,0,0,0,0,0,0,0,0,0,0,0,0,0,0,0,0,0,0,0,0],"split_type":[0,0,0,0,0,0,0,0,0,0,0,0,0,0,0,0,0,0,0,0,0,0,0,0,0,0,0,0,0,0,0,0,0,0,0,0,0,0,0,0,0,0,0,0,0,0,0,0,0,0,0,0,0,0,0,0,0,0,0,0,0,0,0,0,0,0,0,0,0,0,0,0,0,0,0,0,0,0,0,0,0,0,0,0,0,0,0,0,0,0,0,0,0,0,0,0,0,0,0,0,0,0,0,0,0,0,0,0,0,0,0,0,0,0,0,0,0,0,0,0,0,0,0,0,0,0,0],"sum_hessian":[7.550201E6,7.417506E6,1.32695E5,6.759144E6,6.58362E5,1.21528E5,1.1167E4,5.408145E6,1.350999E6,4.73629E5,1.84733E5,8.5996E4,3.5532E4,7.977E3,3.19E3,4.731768E6,6.76377E5,7.63975E5,5.87024E5,3.08863E5,1.64766E5,1.28331E5,5.6402E4,6.1425E4,2.4571E4,2.4621E4,1.0911E4,4.201E3,3.776E3,2.158E3,1.032E3,4.515794E6,2.15974E5,4.51117E5,2.2526E5,4.09112E5,3.54863E5,5.85213E5,1.811E3,2.20326E5,8.8537E4,1.17548E5,4.7218E4,9.1455E4,3.6876E4,4.0283E4,1.6119E4,3.7918E4,2.3507E4,1.2113E4,1.2458E4,1.7599E4,7.022E3,7.757E3,3.154E3,3.11E2,3.89E3,1.651E3,2.125E3,1.05E2,2.053E3,4.23E2,6.09E2,4.406116E6,1.09678E5,1.3219E5,8.3784E4,2.74211E5,1.76906E5,1.78933E5,4.6327E4,3.2138E4,3.76974E5,2.53381E5,1.01482E5,4.27364E5,1.57849E5,7.69E2,1.042E3,1.52355E5,6.7971E4,5.8907E4,2.963E4,9.1284E4,2.6264E4,3.4905E4,1.2313E4,3.9192E4,5.2263E4,1.8973E4,1.7903E4,2.8997E4,1.1286E4,2.037E3,1.4082E4,2.3765E4,1.4153E4,1.4867E4,8.64E3,1.1256E4,8.57E2,8.967E3,3.491E3,1.0257E4,7.342E3,3.519E3,3.503E3,1.958E3,5.799E3,2.712E3,4.42E2,1.78E2,1.33E2,1.87E3,2.02E3,1.295E3,3.56E2,8.72E2,1.253E3,5.4E1,5.1E1,9.77E2,1.076E3,1.36E2,2.87E2,2.65E2,3.44E2],"tree_param":{"num_deleted":"0","num_feature":"42","num_nodes":"127","size_leaf_vector":"1"}},{"base_weights":[9.95866E-5,-4.5349106E-1,2.496645E1,-1.0014138E0,5.0319705E0,2.0452208E1,6.95727E1,-1.340897E0,5.551194E-1,4.8690877E0,4.7366795E1,1.6403288E1,3.133422E1,6.802007E1,3.926824E2,-1.3452668E0,2.0136223E1,5.099446E-1,2.3194227E1,3.4438145E0,8.375664E0,4.006896E1,9.862235E1,1.6140814E1,9.763434E1,3.0722038E1,1.590707E2,5.1601826E1,8.834487E1,3.245923E2,6.6029456E2,-1.4349691E0,-7.8001153E-1,9.305306E1,1.5944793E1,5.1963463E-2,1.3499801E0,2.1965164E1,9.349445E1,2.6331177E0,4.683558E0,7.3158293E0,1.1050761E1,2.53484E1,5.0911686E1,1.7253082E2,5.595936E1,1.4340047E1,2.077868E1,3.2183937E1,9.3474464E1,2.5693892E1,3.781235E1,1.3826949E2,6.6298956E2,4.085373E1,5.5022087E1,1.2239355E2,7.744738E1,2.5351688E2,4.5534055E2,7.511209E2,8.385875E0,-7.228839E-2,-6.1748594E-2,-4.6956707E-2,-2.5569245E-2,2.4278138E0,2.908529E1,7.7043873E-1,1.0036892E1,-1.0284099E-2,2.0273097E-2,5.058336E-2,1.0799249E-1,1.0565045E0,3.438197E0,3.0223185E1,3.2804315E0,1.0866573E-1,1.9336028E-1,2.0023714E-1,3.203216E-1,3.1441295E-1,4.5069718E-1,4.9125645E-1,6.9003767E-1,1.1975229E0,1.8572592E0,2.3911123E0,4.8127832E0,2.765492E1,7.1642365E0,3.6348484E1,2.4553258E0,6.117763E-1,8.4195274E-1,9.121892E-1,1.220458E0,4.1090765E0,6.423488E0,1.0945154E0,1.4328418E0,1.7248286E0,2.430223E0,8.713347E0,5.3312764E0,7.2152664E1,1.0918307E1,6.843928E-1,2.2013192E0,2.6236541E0,3.2528913E0,3.4739113E0,7.7970185E0,3.5244694E0,5.1212287E0,9.054934E0,1.5057883E1,3.3720837E1,1.6305687E1,4.0561657E1,6.755572E0],"categories":[],"categories_nodes":[],"categories_segments":[],"categories_sizes":[],"default_left":[1,1,0,0,0,1,0,0,0,0,0,0,0,1,0,0,0,1,1,0,0,0,0,0,0,0,0,0,0,0,0,0,0,0,0,1,0,1,0,0,0,0,1,0,1,0,0,0,1,0,1,1,0,0,0,0,0,0,0,0,0,0,0,0,0,0,0,0,0,0,0,0,0,0,0,0,0,0,0,0,0,0,0,0,0,0,0,0,0,0,0,0,0,0,0,0,0,0,0,0,0,0,0,0,0,0,0,0,0,0,0,0,0,0,0,0,0,0,0,0,0,0,0],"id":6,"left_children":[1,3,5,7,9,11,13,15,17,19,21,23,25,27,29,31,33,35,37,39,41,43,45,47,49,51,53,55,57,59,61,63,65,67,69,71,73,75,77,79,81,83,85,87,89,91,93,95,97,-1,99,101,103,105,107,109,111,113,115,117,119,121,-1,-1,-1,-1,-1,-1,-1,-1,-1,-1,-1,-1,-1,-1,-1,-1,-1,-1,-1,-1,-1,-1,-1,-1,-1,-1,-1,-1,-1,-1,-1,-1,-1,-1,-1,-1,-1,-1,-1,-1,-1,-1,-1,-1,-1,-1,-1,-1,-1,-1,-1,-1,-1,-1,-1,-1,-1,-1,-1,-1,-1],"loss_changes":[8.5502296E7,2.2288036E7,2.7127272E7,3.562608E6,4.643536E6,5.390056E6,6.184456E6,5.1949E5,1.2345786E6,3.352807E6,9.61483E5,1.89962E6,2.589414E6,4.1076E6,8.60757E5,2.80586E5,3.4265084E5,4.634976E5,2.0566012E5,4.79385E5,5.49579E5,3.5959E5,1.00250875E6,7.42038E5,5.9174525E5,1.176194E6,1.5645035E6,2.48428E5,2.033124E6,3.399195E5,3.661525E5,1.0312E4,3.2395562E4,1.2981068E6,1.0249691E5,7.101184E4,1.16465E5,9.093325E4,5.445426E5,1.6364012E5,2.2053025E5,2.42248E5,1.852815E5,1.49584375E4,1.7765075E5,1.2229732E6,9.0695825E5,3.36531E5,2.28311E5,0E0,1.024695E5,2.17128E5,4.88496E5,1.5570125E5,1.7658932E6,1.416075E5,1.28841E5,2.355428E6,7.18008E5,6.276275E4,2.330315E5,2.236605E5,0E0,0E0,0E0,0E0,0E0,0E0,0E0,0E0,0E0,0E0,0E0,0E0,0E0,0E0,0E0,0E0,0E0,0E0,0E0,0E0,0E0,0E0,0E0,0E0,0E0,0E0,0E0,0E0,0E0,0E0,0E0,0E0,0E0,0E0,0E0,0E0,0E0,0E0,0E0,0E0,0E0,0E0,0E0,0E0,0E0,0E0,0E0,0E0,0E0,0E0,0E0,0E0,0E0,0E0,0E0,0E0,0E0,0E0,0E0,0E0,0E0],"parents":[2147483647,0,0,1,1,2,2,3,3,4,4,5,5,6,6,7,7,8,8,9,9,10,10,11,11,12,12,13,13,14,14,15,15,16,16,17,17,18,18,19,19,20,20,21,21,22,22,23,23,24,24,25,25,26,26,27,27,28,28,29,29,30,30,31,31,32,32,33,33,34,34,35,35,36,36,37,37,38,38,39,39,40,40,41,41,42,42,43,43,44,44,45,45,46,46,47,47,48,48,50,50,51,51,52,52,53,53,54,54,55,55,56,56,57,57,58,58,59,59,60,60,61,61],"right_children":[2,4,6,8,10,12,14,16,18,20,22,24,26,28,30,32,34,36,38,40,42,44,46,48,50,52,54,56,58,60,62,64,66,68,70,72,74,76,78,80,82,84,86,88,90,92,94,96,98,-1,100,102,104,106,108,110,112,114,116,118,120,122,-1,-1,-1,-1,-1,-1,-1,-1,-1,-1,-1,-1,-1,-1,-1,-1,-1,-1,-1,-1,-1,-1,-1,-1,-1,-1,-1,-1,-1,-1,-1,-1,-1,-1,-1,-1,-1,-1,-1,-1,-1,-1,-1,-1,-1,-1,-1,-1,-1,-1,-1,-1,-1,-1,-1,-1,-1,-1,-1,-1,-1],"split_conditions":[1.8856213E1,4.746154E0,6.712045E1,1.25E0,1E0,3.4E1,1E0,1E0,1E0,1.0207764E1,5.7070386E-3,1E0,1E0,8.8E1,1.146797E6,2.4426325E-1,1.8435003E-7,2.934423E0,8.498222E0,6.957477E0,5E0,6.681144E0,7.355226E-3,5E0,1.3484753E1,4.7E1,1.1210762E-2,4.7E1,2.60893E5,2.7085592E-3,1.7E1,1.9398147E-3,9.6189797E-1,8.056003E-27,3.8457363E0,2.0544918E0,5E0,5.6781263E0,2.6333334E0,5E0,5E0,1.4227617E1,2.1E1,7.9779916E0,1.7618828E1,1.5561E5,1.7728106E0,2.464919E1,3.2E1,3.2183937E1,2.2E1,3.8733334E1,6E0,4.7E1,1.1E1,1.6E1,5E0,2.22879E5,6E0,6.27263E5,8.8E1,5.465615E-3,8.385875E0,-7.228839E-2,-6.1748594E-2,-4.6956707E-2,-2.5569245E-2,2.4278138E0,2.908529E1,7.7043873E-1,1.0036892E1,-1.0284099E-2,2.0273097E-2,5.058336E-2,1.0799249E-1,1.0565045E0,3.438197E0,3.0223185E1,3.2804315E0,1.0866573E-1,1.9336028E-1,2.0023714E-1,3.203216E-1,3.1441295E-1,4.5069718E-1,4.9125645E-1,6.9003767E-1,1.1975229E0,1.8572592E0,2.3911123E0,4.8127832E0,2.765492E1,7.1642365E0,3.6348484E1,2.4553258E0,6.117763E-1,8.4195274E-1,9.121892E-1,1.220458E0,4.1090765E0,6.423488E0,1.0945154E0,1.4328418E0,1.7248286E0,2.430223E0,8.713347E0,5.3312764E0,7.2152664E1,1.0918307E1,6.843928E-1,2.2013192E0,2.6236541E0,3.2528913E0,3.4739113E0,7.7970185E0,3.5244694E0,5.1212287E0,9.054934E0,1.5057883E1,3.3720837E1,1.6305687E1,4.0561657E1,6.755572E0],"split_indices":[30,26,30,26,3,22,3,3,3,30,34,3,3,16,1,26,26,30,23,30,7,30,34,7,26,16,34,16,1,34,10,26,30,26,30,30,7,30,24,7,7,30,16,23,23,1,23,30,16,0,18,24,7,16,16,18,7,1,7,1,16,34,0,0,0,0,0,0,0,0,0,0,0,0,0,0,0,0,0,0,0,0,0,0,0,0,0,0,0,0,0,0,0,0,0,0,0,0,0,0,0,0,0,0,0,0,0,0,0,0,0,0,0,0,0,0,0,0,0,0,0,0,0],"split_type":[0,0,0,0,0,0,0,0,0,0,0,0,0,0,0,0,0,0,0,0,0,0,0,0,0,0,0,0,0,0,0,0,0,0,0,0,0,0,0,0,0,0,0,0,0,0,0,0,0,0,0,0,0,0,0,0,0,0,0,0,0,0,0,0,0,0,0,0,0,0,0,0,0,0,0,0,0,0,0,0,0,0,0,0,0,0,0,0,0,0,0,0,0,0,0,0,0,0,0,0,0,0,0,0,0,0,0,0,0,0,0,0,0,0,0,0,0,0,0,0,0,0,0],"sum_hessian":[7.550201E6,7.415477E6,1.34724E5,6.74204E6,6.73437E5,1.22344E5,1.238E4,5.534873E6,1.207167E6,6.70857E5,2.58E3,8.9169E4,3.3175E4,1.2322E4,5.8E1,5.533748E6,1.125E3,1.204764E6,2.403E3,4.76985E5,1.93872E5,2.26E3,3.2E2,8.8883E4,2.86E2,3.3018E4,1.57E2,6.818E3,5.504E3,4.8E1,1E1,4.775851E6,7.57897E5,6E1,1.065E3,7.79686E5,4.25078E5,2.363E3,4E1,2.88398E5,1.88587E5,1.38861E5,5.5011E4,9.6E2,1.3E3,1.16E2,2.04E2,6.4027E4,2.4856E4,1E0,2.85E2,1.9321E4,1.3697E4,1.52E2,5E0,1.649E3,5.169E3,1.332E3,4.172E3,3.3E1,1.5E1,8E0,2E0,4.53119E6,2.44661E5,4.75958E5,2.81939E5,5.6E1,4E0,1.063E3,2E0,4.50987E5,3.28699E5,2.9983E5,1.25248E5,2.323E3,4E1,1E0,3.9E1,2.10115E5,7.8283E4,1.35287E5,5.33E4,8.6514E4,5.2347E4,3.8055E4,1.6956E4,8.61E2,9.9E1,1.219E3,8.1E1,7E0,1.09E2,1E0,2.03E2,3.476E4,2.9267E4,1.464E4,1.0216E4,2.18E2,6.7E1,8.464E3,1.0857E4,1.0481E4,3.216E3,6.9E1,8.3E1,1E0,4E0,1.73E2,1.476E3,4.127E3,1.042E3,5.18E2,8.14E2,3.266E3,9.06E2,1.5E1,1.8E1,4E0,1.1E1,7E0,1E0],"tree_param":{"num_deleted":"0","num_feature":"42","num_nodes":"123","size_leaf_vector":"1"}},{"base_weights":[1.5759634E-4,-4.7038028E-1,2.185091E1,-1.0086913E0,4.0687275E0,1.8117737E1,6.610687E1,-1.2969339E0,2.6523614E-1,2.7898917E0,7.099022E0,1.4476442E1,2.9075445E1,5.007643E1,8.58799E1,-1.3658348E0,-8.243634E-1,-1.4266749E-1,8.244909E-1,2.120517E0,3.7939048E0,6.165601E0,9.473729E0,1.27508135E1,1.8953201E1,2.5505266E1,3.8493553E1,4.4916996E1,5.5685593E1,6.560263E1,9.876207E1,-1.37281E0,-1.2056085E0,-9.707552E-1,-6.780426E-1,-2.9223138E-1,2.4077149E-1,5.7127124E-1,1.4580942E0,1.7268281E0,3.103757E0,3.213413E0,5.273139E0,5.08005E0,7.363471E0,7.993393E0,1.1526084E1,1.0732922E1,1.5260649E1,1.6254053E1,2.2672354E1,2.3489883E1,3.1448648E1,3.446316E1,4.9413467E1,5.814031E1,4.2267017E1,5.28046E1,6.493485E1,5.962701E1,7.282023E1,8.210441E1,1.1618631E2,-6.868546E-2,-6.661261E-2,-6.0685676E-2,-4.0367194E-2,-5.1646084E-2,-4.1008975E-2,-3.8957193E-2,-2.1645853E-2,-2.426323E-2,-3.650434E-3,-1.6077884E-3,2.6799282E-2,1.9108228E-2,4.5771867E-2,6.0256083E-2,9.617136E-2,7.348504E-2,1.0848633E-1,1.3073699E-1,1.8077342E-1,1.4163814E-1,1.8445213E-1,2.4048889E-1,3.160816E-1,3.6674094E-1,2.4706319E-1,1.6138184E0,3.6695915E-1,3.6061308E-1,4.6144572E-1,5.261717E-1,6.7908686E-1,7.351576E-1,5.2457786E-1,7.123408E-1,8.5417396E-1,7.374992E-1,9.5099086E-1,1.0457137E0,1.3155049E0,1.0949628E0,1.466226E0,-1.442488E-1,1.5837682E0,1.4311818E0,1.9446281E0,2.1700153E0,3.1732414E0,4.3831224E0,2.7540214E0,1.2554969E0,2.2320442E0,2.1992326E0,2.7800956E0,2.3469055E0,3.3940766E0,1.8437508E0,3.0776756E0,3.2133482E0,3.9148366E0,3.7596009E0,5.396663E0,5.1955857E0,6.9725223E0],"categories":[],"categories_nodes":[],"categories_segments":[],"categories_sizes":[],"default_left":[1,1,0,0,0,0,1,0,1,0,0,0,1,0,1,1,0,0,0,0,0,0,0,0,1,0,0,0,0,0,1,0,0,0,0,0,0,0,0,0,0,0,1,0,0,1,1,0,1,1,0,0,0,0,0,0,0,1,0,0,0,0,0,0,0,0,0,0,0,0,0,0,0,0,0,0,0,0,0,0,0,0,0,0,0,0,0,0,0,0,0,0,0,0,0,0,0,0,0,0,0,0,0,0,0,0,0,0,0,0,0,0,0,0,0,0,0,0,0,0,0,0,0,0,0,0,0],"id":7,"left_children":[1,3,5,7,9,11,13,15,17,19,21,23,25,27,29,31,33,35,37,39,41,43,45,47,49,51,53,55,57,59,61,63,65,67,69,71,73,75,77,79,81,83,85,87,89,91,93,95,97,99,101,103,105,107,109,111,113,115,117,119,121,123,125,-1,-1,-1,-1,-1,-1,-1,-1,-1,-1,-1,-1,-1,-1,-1,-1,-1,-1,-1,-1,-1,-1,-1,-1,-1,-1,-1,-1,-1,-1,-1,-1,-1,-1,-1,-1,-1,-1,-1,-1,-1,-1,-1,-1,-1,-1,-1,-1,-1,-1,-1,-1,-1,-1,-1,-1,-1,-1,-1,-1,-1,-1,-1,-1],"loss_changes":[7.7628216E7,1.805966E7,2.629444E7,2.426255E6,3.036637E6,5.856136E6,3.920104E6,1.75444E5,2.7811922E5,3.70332E5,5.15417E5,8.50864E5,1.229972E6,1.9545E5,1.441172E6,5.255E3,1.46860625E4,4.0429645E4,8.249628E4,1.27977125E5,1.892595E5,2.17041E5,1.992575E5,4.02586E5,3.07313E5,3.1727E5,4.41098E5,1.2257E5,8.3787E4,8.8645E4,9.7353E5,1.62E2,6.3228125E2,3.2074062E3,8.497828E3,2.1461504E4,1.5938931E4,2.3909727E4,1.7280719E4,2.6883875E4,2.3645625E4,2.8650625E4,3.0149875E4,2.73695E4,4.77825E4,3.672625E4,5.6523E4,4.20915E4,6.52495E4,7.3616E4,8.1868E4,1.83395E5,5.24005E4,1.89051E5,2.262215E5,4.8739625E4,1.200875E5,5.926E4,3.780625E4,4.9671E4,4.0499E4,3.0165E5,4.57536E5,0E0,0E0,0E0,0E0,0E0,0E0,0E0,0E0,0E0,0E0,0E0,0E0,0E0,0E0,0E0,0E0,0E0,0E0,0E0,0E0,0E0,0E0,0E0,0E0,0E0,0E0,0E0,0E0,0E0,0E0,0E0,0E0,0E0,0E0,0E0,0E0,0E0,0E0,0E0,0E0,0E0,0E0,0E0,0E0,0E0,0E0,0E0,0E0,0E0,0E0,0E0,0E0,0E0,0E0,0E0,0E0,0E0,0E0,0E0,0E0,0E0,0E0,0E0,0E0],"parents":[2147483647,0,0,1,1,2,2,3,3,4,4,5,5,6,6,7,7,8,8,9,9,10,10,11,11,12,12,13,13,14,14,15,15,16,16,17,17,18,18,19,19,20,20,21,21,22,22,23,23,24,24,25,25,26,26,27,27,28,28,29,29,30,30,31,31,32,32,33,33,34,34,35,35,36,36,37,37,38,38,39,39,40,40,41,41,42,42,43,43,44,44,45,45,46,46,47,47,48,48,49,49,50,50,51,51,52,52,53,53,54,54,55,55,56,56,57,57,58,58,59,59,60,60,61,61,62,62],"right_children":[2,4,6,8,10,12,14,16,18,20,22,24,26,28,30,32,34,36,38,40,42,44,46,48,50,52,54,56,58,60,62,64,66,68,70,72,74,76,78,80,82,84,86,88,90,92,94,96,98,100,102,104,106,108,110,112,114,116,118,120,122,124,126,-1,-1,-1,-1,-1,-1,-1,-1,-1,-1,-1,-1,-1,-1,-1,-1,-1,-1,-1,-1,-1,-1,-1,-1,-1,-1,-1,-1,-1,-1,-1,-1,-1,-1,-1,-1,-1,-1,-1,-1,-1,-1,-1,-1,-1,-1,-1,-1,-1,-1,-1,-1,-1,-1,-1,-1,-1,-1,-1,-1,-1,-1,-1,-1],"split_conditions":[1.7202362E1,4.023331E0,6.712045E1,1.0885376E0,9.018122E0,3.3217167E1,8.8E1,2.3292428E-1,2.3437693E0,6.1407595E0,5E0,5E0,5.4E1,6.5E1,3.722371E1,1.385874E-1,6.4344645E-1,5E0,5E0,5E0,5E0,1.2019969E1,1.2427556E1,2.3101711E1,2.3714285E1,4.805495E1,6E0,6E0,5E0,5E0,8.7E1,8.789193E-14,3.1E1,5E0,5E0,1.7026081E0,1.6577326E0,3.2815607E0,3.3243623E0,5.137533E0,4.9020357E0,7.478352E0,1.2E1,3E0,7.2494245E0,1.5E1,2.2E1,3E0,2.7E1,2.8E1,4.1E1,5E0,2.6285715E1,4.763915E1,8.8E1,2.3E1,2.3E1,7.085714E1,6.759784E1,7.085714E1,2.7339542E1,6E0,5E0,-6.868546E-2,-6.661261E-2,-6.0685676E-2,-4.0367194E-2,-5.1646084E-2,-4.1008975E-2,-3.8957193E-2,-2.1645853E-2,-2.426323E-2,-3.650434E-3,-1.6077884E-3,2.6799282E-2,1.9108228E-2,4.5771867E-2,6.0256083E-2,9.617136E-2,7.348504E-2,1.0848633E-1,1.3073699E-1,1.8077342E-1,1.4163814E-1,1.8445213E-1,2.4048889E-1,3.160816E-1,3.6674094E-1,2.4706319E-1,1.6138184E0,3.6695915E-1,3.6061308E-1,4.6144572E-1,5.261717E-1,6.7908686E-1,7.351576E-1,5.2457786E-1,7.123408E-1,8.5417396E-1,7.374992E-1,9.5099086E-1,1.0457137E0,1.3155049E0,1.0949628E0,1.466226E0,-1.442488E-1,1.5837682E0,1.4311818E0,1.9446281E0,2.1700153E0,3.1732414E0,4.3831224E0,2.7540214E0,1.2554969E0,2.2320442E0,2.1992326E0,2.7800956E0,2.3469055E0,3.3940766E0,1.8437508E0,3.0776756E0,3.2133482E0,3.9148366E0,3.7596009E0,5.396663E0,5.1955857E0,6.9725223E0],"split_indices":[28,28,30,28,28,28,16,28,28,28,7,7,16,16,23,29,28,7,7,7,7,28,28,28,22,28,7,10,7,7,19,28,10,7,7,28,28,30,30,30,30,28,16,10,30,16,16,10,16,16,16,7,20,30,16,16,16,20,28,20,23,7,7,0,0,0,0,0,0,0,0,0,0,0,0,0,0,0,0,0,0,0,0,0,0,0,0,0,0,0,0,0,0,0,0,0,0,0,0,0,0,0,0,0,0,0,0,0,0,0,0,0,0,0,0,0,0,0,0,0,0,0,0,0,0,0,0],"split_type":[0,0,0,0,0,0,0,0,0,0,0,0,0,0,0,0,0,0,0,0,0,0,0,0,0,0,0,0,0,0,0,0,0,0,0,0,0,0,0,0,0,0,0,0,0,0,0,0,0,0,0,0,0,0,0,0,0,0,0,0,0,0,0,0,0,0,0,0,0,0,0,0,0,0,0,0,0,0,0,0,0,0,0,0,0,0,0,0,0,0,0,0,0,0,0,0,0,0,0,0,0,0,0,0,0,0,0,0,0,0,0,0,0,0,0,0,0,0,0,0,0,0,0,0,0,0,0],"sum_hessian":[7.550201E6,7.391042E6,1.59159E5,6.60744E6,7.83602E5,1.46779E5,1.238E4,5.388273E6,1.219167E6,5.51051E5,2.32551E5,1.10171E5,3.6608E4,6.839E3,5.541E3,4.702627E6,6.85646E5,7.04978E5,5.14189E5,3.30626E5,2.20425E5,1.66937E5,6.5614E4,7.9522E4,3.0649E4,2.6548E4,1.006E4,3.567E3,3.272E3,2.155E3,3.386E3,4.506438E6,1.96189E5,3.42737E5,3.42909E5,5.07157E5,1.97821E5,3.67371E5,1.46818E5,2.36096E5,9.453E4,1.58305E5,6.212E4,8.7577E4,7.936E4,3.8122E4,2.7492E4,4.4084E4,3.5438E4,1.7763E4,1.2886E4,1.9829E4,6.719E3,7.351E3,2.709E3,5.92E2,2.975E3,2.5E3,7.72E2,1.184E3,9.71E2,1.734E3,1.652E3,4.408678E6,9.776E4,1.92274E5,3.915E3,2.4258E5,1.00157E5,2.42775E5,1.00134E5,2.69687E5,2.3747E5,1.02791E5,9.503E4,2.37097E5,1.30274E5,9.5114E4,5.1704E4,1.49378E5,8.6718E4,4.834E4,4.619E4,8.7936E4,7.0369E4,4.3085E4,1.9035E4,5.075E3,8.2502E4,7.6E1,7.9284E4,2.336E4,1.4762E4,1.8483E4,9.009E3,2.523E3,4.1561E4,2.2778E4,1.266E4,1.151E4,6.253E3,8.692E3,4.194E3,1.5585E4,4.244E3,4.4E1,6.675E3,3.174E3,4.177E3,1.9E3,8.09E2,5.3E1,5.39E2,3.63E2,2.612E3,6.06E2,1.894E3,1.11E2,6.61E2,9.4E1,1.09E3,3.84E2,5.87E2,1.371E3,3.63E2,1.085E3,5.67E2],"tree_param":{"num_deleted":"0","num_feature":"42","num_nodes":"127","size_leaf_vector":"1"}},{"base_weights":[1.603078E-4,-3.9096394E-1,2.3731857E1,-8.86259E-1,4.8923874E0,1.9335194E1,6.2805946E1,-1.1958761E0,6.198924E-1,3.5307863E0,8.251128E0,1.612122E1,3.0630846E1,4.757573E1,8.159193E1,-1.2871337E0,-6.107306E-1,2.1801531E-1,1.3700038E0,2.8448975E0,4.7969704E0,7.190912E0,1.0954842E1,1.4236218E1,2.1023085E1,2.7031155E1,4.0246197E1,3.577712E1,5.0311665E1,1.1176412E2,7.197195E1,-1.3022869E0,-1.0391737E0,-7.458365E-1,-4.0152946E-1,3.5764575E-2,6.865366E-1,1.0667508E0,2.1280801E0,2.3857317E0,4.0088973E0,4.1212635E0,6.511192E0,6.2656436E0,9.033522E0,9.609629E0,1.3646819E1,1.2737914E1,1.7942942E1,1.8794775E1,2.6439743E1,2.3243568E1,3.0790167E1,3.722089E1,5.5916542E1,1.7811707E1,3.844887E1,2.4926348E1,5.1295418E1,6.3114582E1,1.4290596E2,6.515281E1,9.6182465E1,-6.525192E-2,-6.1565008E-2,-5.411459E-2,-4.681673E-2,-3.7881467E-2,8.652268E-2,-2.6217178E-2,-5.406618E-3,3.51513E-3,-1.0132352E-1,1.6483473E-2,5.1058132E-2,4.259437E-2,7.3808216E-2,1.0625142E-1,3.60762E0,1.0078653E-1,1.4099523E-1,1.7437108E-1,2.3830426E-1,1.815025E-1,2.3429541E-1,1.0990864E0,3.233113E-1,1.8293021E0,3.118099E-1,6.4029056E-1,4.4033906E-1,4.2964536E-1,5.5671906E-1,6.2861794E-1,8.192587E-1,5.7327724E-1,7.0364773E-1,8.2756406E-1,1.0087723E0,8.5949796E-1,1.111314E0,1.1514221E0,1.5153178E0,1.1577923E0,4.05096E0,1.3455206E0,1.6622578E0,1.4868695E0,1.9943485E0,2.2159774E0,3.0726619E0,1.4989771E0,5.3307736E-1,1.7434464E0,2.392536E0,1.6685544E-1,2.590949E0,2.4401479E0,3.248061E0,2.812128E0,3.556812E0,5.167785E0,9.851474E0,2.929281E0,3.5314102E0,3.4774365E0,5.9914775E0],"categories":[],"categories_nodes":[],"categories_segments":[],"categories_sizes":[],"default_left":[1,1,0,0,0,0,1,0,1,0,0,0,0,0,0,0,0,0,0,0,0,0,0,0,1,0,1,1,0,0,0,0,0,0,0,0,0,1,0,0,1,1,0,0,0,1,1,1,1,1,0,0,1,1,0,0,0,0,0,0,0,0,0,0,0,0,0,0,0,0,0,0,0,0,0,0,0,0,0,0,0,0,0,0,0,0,0,0,0,0,0,0,0,0,0,0,0,0,0,0,0,0,0,0,0,0,0,0,0,0,0,0,0,0,0,0,0,0,0,0,0,0,0,0,0,0,0],"id":8,"left_children":[1,3,5,7,9,11,13,15,17,19,21,23,25,27,29,31,33,35,37,39,41,43,45,47,49,51,53,55,57,59,61,63,65,67,69,71,73,75,77,79,81,83,85,87,89,91,93,95,97,99,101,103,105,107,109,111,113,115,117,119,121,123,125,-1,-1,-1,-1,-1,-1,-1,-1,-1,-1,-1,-1,-1,-1,-1,-1,-1,-1,-1,-1,-1,-1,-1,-1,-1,-1,-1,-1,-1,-1,-1,-1,-1,-1,-1,-1,-1,-1,-1,-1,-1,-1,-1,-1,-1,-1,-1,-1,-1,-1,-1,-1,-1,-1,-1,-1,-1,-1,-1,-1,-1,-1,-1,-1],"loss_changes":[7.0081304E7,1.9437166E7,2.1029664E7,3.166915E6,2.911517E6,3.99432E6,3.5385E6,3.00804E5,3.490809E5,3.934025E5,5.26335E5,7.91254E5,8.42516E5,2.18996E5,1.600556E6,1.8308E4,2.1480656E4,6.438493E4,9.286669E4,1.5703725E5,1.843395E5,2.248495E5,1.871835E5,3.43419E5,2.8666E5,2.51817E5,3.12563E5,6.1282E4,1.37321E5,2.018098E6,6.87958E5,8.96E2,1.2434688E3,1.3486344E4,1.0746039E4,3.8665555E4,2.5216602E4,2.5381719E4,2.4513562E4,3.3845E4,3.280375E4,3.1649E4,3.1162125E4,7.81795E4,3.7604E4,5.33785E4,5.049775E4,7.46955E4,5.4997E4,9.2465E4,9.0736E4,4.2922E4,8.3866E4,1.09865E5,6.61085E4,1.4383703E4,3.6129375E4,1.211707E5,1.78787E5,2.48845E4,1.724224E6,1.13948E5,5.72351E5,0E0,0E0,0E0,0E0,0E0,0E0,0E0,0E0,0E0,0E0,0E0,0E0,0E0,0E0,0E0,0E0,0E0,0E0,0E0,0E0,0E0,0E0,0E0,0E0,0E0,0E0,0E0,0E0,0E0,0E0,0E0,0E0,0E0,0E0,0E0,0E0,0E0,0E0,0E0,0E0,0E0,0E0,0E0,0E0,0E0,0E0,0E0,0E0,0E0,0E0,0E0,0E0,0E0,0E0,0E0,0E0,0E0,0E0,0E0,0E0,0E0,0E0,0E0,0E0],"parents":[2147483647,0,0,1,1,2,2,3,3,4,4,5,5,6,6,7,7,8,8,9,9,10,10,11,11,12,12,13,13,14,14,15,15,16,16,17,17,18,18,19,19,20,20,21,21,22,22,23,23,24,24,25,25,26,26,27,27,28,28,29,29,30,30,31,31,32,32,33,33,34,34,35,35,36,36,37,37,38,38,39,39,40,40,41,41,42,42,43,43,44,44,45,45,46,46,47,47,48,48,49,49,50,50,51,51,52,52,53,53,54,54,55,55,56,56,57,57,58,58,59,59,60,60,61,61,62,62],"right_children":[2,4,6,8,10,12,14,16,18,20,22,24,26,28,30,32,34,36,38,40,42,44,46,48,50,52,54,56,58,60,62,64,66,68,70,72,74,76,78,80,82,84,86,88,90,92,94,96,98,100,102,104,106,108,110,112,114,116,118,120,122,124,126,-1,-1,-1,-1,-1,-1,-1,-1,-1,-1,-1,-1,-1,-1,-1,-1,-1,-1,-1,-1,-1,-1,-1,-1,-1,-1,-1,-1,-1,-1,-1,-1,-1,-1,-1,-1,-1,-1,-1,-1,-1,-1,-1,-1,-1,-1,-1,-1,-1,-1,-1,-1,-1,-1,-1,-1,-1,-1,-1,-1,-1,-1,-1,-1],"split_conditions":[2.0260303E1,5.0210395E0,6.712045E1,1.4651937E0,1.0931719E1,3.8833088E1,8.8E1,3.566491E-1,3.1645122E0,7.813863E0,5E0,5E0,5E0,6.81664E1,2.60893E5,1.01490945E-1,1.024485E0,5E0,5E0,5E0,5E0,1.5660987E1,1.5660987E1,2.9578094E1,4.1E1,4.805495E1,8.8E1,2.3E1,1.8E1,2.22879E5,6E0,1.7031617E-19,5E0,2E0,5E0,1.255777E6,2.1442747E0,4.1666665E0,8.868972E0,6.2540226E0,6.3333335E0,8.9E0,3.1666667E0,3.9666667E0,3E0,1.8E1,2.8E1,2.3066668E1,3.2766666E1,2.68E1,2.9578094E1,1.165988E6,4.1E1,4.1E1,6E0,3.6660694E1,5E0,2.7E1,5E0,5E0,3.6E1,3.796866E1,3.796866E1,-6.525192E-2,-6.1565008E-2,-5.411459E-2,-4.681673E-2,-3.7881467E-2,8.652268E-2,-2.6217178E-2,-5.406618E-3,3.51513E-3,-1.0132352E-1,1.6483473E-2,5.1058132E-2,4.259437E-2,7.3808216E-2,1.0625142E-1,3.60762E0,1.0078653E-1,1.4099523E-1,1.7437108E-1,2.3830426E-1,1.815025E-1,2.3429541E-1,1.0990864E0,3.233113E-1,1.8293021E0,3.118099E-1,6.4029056E-1,4.4033906E-1,4.2964536E-1,5.5671906E-1,6.2861794E-1,8.192587E-1,5.7327724E-1,7.0364773E-1,8.2756406E-1,1.0087723E0,8.5949796E-1,1.111314E0,1.1514221E0,1.5153178E0,1.1577923E0,4.05096E0,1.3455206E0,1.6622578E0,1.4868695E0,1.9943485E0,2.2159774E0,3.0726619E0,1.4989771E0,5.3307736E-1,1.7434464E0,2.392536E0,1.6685544E-1,2.590949E0,2.4401479E0,3.248061E0,2.812128E0,3.556812E0,5.167785E0,9.851474E0,2.929281E0,3.5314102E0,3.4774365E0,5.9914775E0],"split_indices":[28,28,30,28,28,28,16,26,28,28,7,7,7,26,1,28,30,7,7,7,7,28,28,28,16,28,16,16,18,1,7,26,7,26,7,1,28,24,26,28,24,24,24,24,10,16,16,24,24,24,28,1,16,16,7,29,7,16,7,7,0,21,21,0,0,0,0,0,0,0,0,0,0,0,0,0,0,0,0,0,0,0,0,0,0,0,0,0,0,0,0,0,0,0,0,0,0,0,0,0,0,0,0,0,0,0,0,0,0,0,0,0,0,0,0,0,0,0,0,0,0,0,0,0,0,0,0],"split_type":[0,0,0,0,0,0,0,0,0,0,0,0,0,0,0,0,0,0,0,0,0,0,0,0,0,0,0,0,0,0,0,0,0,0,0,0,0,0,0,0,0,0,0,0,0,0,0,0,0,0,0,0,0,0,0,0,0,0,0,0,0,0,0,0,0,0,0,0,0,0,0,0,0,0,0,0,0,0,0,0,0,0,0,0,0,0,0,0,0,0,0,0,0,0,0,0,0,0,0,0,0,0,0,0,0,0,0,0,0,0,0,0,0,0,0,0,0,0,0,0,0,0,0,0,0,0,0],"sum_hessian":[7.550201E6,7.427784E6,1.22417E5,6.79114E6,6.36644E5,1.10037E5,1.238E4,5.633144E6,1.157996E6,4.53003E5,1.83641E5,8.5665E4,2.4372E4,6.839E3,5.541E3,4.873142E6,7.60002E5,7.54024E5,4.03972E5,2.93836E5,1.59167E5,1.31916E5,5.1725E4,6.1875E4,2.379E4,1.7736E4,6.636E3,1.29E3,5.549E3,1.337E3,4.204E3,4.592486E6,2.80656E5,4.61776E5,2.98226E5,5.42858E5,2.11166E5,2.88547E5,1.15425E5,2.10717E5,8.3119E4,1.14168E5,4.4999E4,8.7821E4,4.4095E4,3.4493E4,1.7232E4,4.4067E4,1.7808E4,1.6859E4,6.931E3,8.838E3,8.898E3,5.565E3,1.071E3,1.68E2,1.122E3,2.08E2,5.341E3,5.23E2,8.14E2,3.283E3,9.21E2,4.4211E6,1.71386E5,1.97739E5,8.2917E4,4.59588E5,2.188E3,2.10226E5,8.8E4,5.33917E5,8.941E3,1.02188E5,1.08978E5,1.89237E5,9.931E4,1.15421E5,4E0,1.13769E5,9.6948E4,4.9224E4,3.3895E4,6.1058E4,5.311E4,1.29E2,4.487E4,8.4E1,8.7737E4,2.497E3,4.1598E4,2.0698E4,1.3795E4,1.238E4,4.852E3,2.2568E4,2.1499E4,1.0975E4,6.833E3,1.1491E4,5.368E3,3.686E3,3.245E3,8.826E3,1.2E1,3.453E3,5.445E3,1.465E3,4.1E3,3.49E2,7.22E2,6.1E1,1.07E2,8.16E2,3.06E2,1.16E2,9.2E1,4.521E3,8.2E2,2.86E2,2.37E2,4.72E2,3.42E2,1.498E3,1.785E3,4.35E2,4.86E2],"tree_param":{"num_deleted":"0","num_feature":"42","num_nodes":"127","size_leaf_vector":"1"}},{"base_weights":[1.6401541E-4,-3.8310787E-1,2.1424486E1,-8.6017466E-1,4.1457767E0,1.7759354E1,6.1306145E1,-1.1708673E0,3.181853E-1,2.8850858E0,7.2267656E0,1.4136365E1,2.7431976E1,4.4958557E1,7.880334E1,-1.2318895E0,-7.119492E-1,-1.273149E-1,9.3750054E-1,2.294961E0,4.1008797E0,6.3042264E0,1.0141229E1,1.2096105E1,1.861075E1,2.3350805E1,3.686597E1,4.0663475E1,5.360378E1,5.625047E1,9.122497E1,-1.2381531E0,-1.0668492E0,-8.261974E-1,-4.427019E-1,-3.372107E-1,3.1538293E-1,8.9706916E-1,1.52773075E1,1.9371395E0,3.435737E0,3.5449898E0,5.4866195E0,5.588433E0,7.653723E0,8.656957E0,1.1846794E1,1.1026382E1,1.438702E1,1.7052063E1,2.362526E1,2.0361416E1,2.7134119E1,3.2361813E1,4.5131454E1,2.6199389E1,4.2960663E1,3.337421E1,5.5736073E1,4.640988E1,5.897853E1,6.526405E1,1.0315266E2,-6.1967548E-2,-5.9749722E-2,-5.365734E-2,-2.5491634E-2,-4.4355772E-2,-3.373938E-2,-2.7966265E-2,-8.649423E-3,-2.2529079E-2,-2.49528E-3,-5.3116303E-2,2.088866E-2,3.0887112E-2,8.395683E-2,1.429713E-1,1.1337365E0,8.186003E-2,1.2871689E-1,1.3814299E-1,2.1471117E-1,1.5042631E-1,2.0815961E-1,2.6664796E-1,5.095888E-1,2.5408146E-1,3.559141E-1,3.596709E-1,4.7701135E-1,4.3154246E-1,4.683773E0,4.9465165E-1,6.853177E-1,4.9562952E-1,6.3716364E-1,6.797689E-1,8.8283056E-1,7.6945776E-1,9.959199E-1,1.0413011E0,1.4332398E0,9.4973725E-1,1.3763378E0,1.2718763E0,1.5995498E0,1.4898224E0,1.8402226E0,2.02175E0,2.7148597E0,5.7964706E-1,1.8992112E0,2.6271534E0,2.078404E0,2.1627662E0,6.776381E-1,7.346199E0,2.7399561E0,6.452897E0,2.2451994E0,2.6934166E0,3.2490609E0,2.8013327E0,3.4767616E0,4.348565E0,5.728761E0],"categories":[],"categories_nodes":[],"categories_segments":[],"categories_sizes":[],"default_left":[1,1,1,0,1,0,0,0,0,0,0,1,0,0,0,0,0,1,1,1,0,1,0,0,0,0,0,0,1,0,0,0,0,0,0,0,0,1,0,1,0,0,0,0,0,1,0,1,0,1,0,0,0,0,0,1,0,0,0,0,1,0,1,0,0,0,0,0,0,0,0,0,0,0,0,0,0,0,0,0,0,0,0,0,0,0,0,0,0,0,0,0,0,0,0,0,0,0,0,0,0,0,0,0,0,0,0,0,0,0,0,0,0,0,0,0,0,0,0,0,0,0,0,0,0,0,0],"id":9,"left_children":[1,3,5,7,9,11,13,15,17,19,21,23,25,27,29,31,33,35,37,39,41,43,45,47,49,51,53,55,57,59,61,63,65,67,69,71,73,75,77,79,81,83,85,87,89,91,93,95,97,99,101,103,105,107,109,111,113,115,117,119,121,123,125,-1,-1,-1,-1,-1,-1,-1,-1,-1,-1,-1,-1,-1,-1,-1,-1,-1,-1,-1,-1,-1,-1,-1,-1,-1,-1,-1,-1,-1,-1,-1,-1,-1,-1,-1,-1,-1,-1,-1,-1,-1,-1,-1,-1,-1,-1,-1,-1,-1,-1,-1,-1,-1,-1,-1,-1,-1,-1,-1,-1,-1,-1,-1,-1],"loss_changes":[6.199729E7,1.6026124E7,1.9395288E7,2.4568105E6,2.745657E6,4.258448E6,3.190916E6,1.487145E5,3.8631688E5,3.5989625E5,5.51814E5,8.06908E5,1.274126E6,2.12295E5,1.505678E6,4.8435E3,1.9171594E4,7.567172E4,3.396268E5,1.3784625E5,1.262495E5,1.505605E5,1.24826E5,1.48665E5,2.16008E5,2.60907E5,3.70755E5,1.272285E5,8.07005E4,4.87525E4,1.069624E6,2.32E2,6.006719E2,4.0354688E3,5.8403867E3,1.7994133E4,3.6949195E4,1.2761122E5,1.5122906E5,4.9129062E4,4.6567375E4,3.8786875E4,3.3874375E4,7.895325E4,4.6852E4,5.776825E4,8.3281E4,7.9045E4,4.978475E4,1.003895E5,9.1986E4,1.259785E5,8.3244E4,7.26985E4,1.495005E5,9.113522E4,4.22795E4,3.5647516E4,1.397575E5,4.6602125E4,4.2451E4,3.93865E4,4.29938E5,0E0,0E0,0E0,0E0,0E0,0E0,0E0,0E0,0E0,0E0,0E0,0E0,0E0,0E0,0E0,0E0,0E0,0E0,0E0,0E0,0E0,0E0,0E0,0E0,0E0,0E0,0E0,0E0,0E0,0E0,0E0,0E0,0E0,0E0,0E0,0E0,0E0,0E0,0E0,0E0,0E0,0E0,0E0,0E0,0E0,0E0,0E0,0E0,0E0,0E0,0E0,0E0,0E0,0E0,0E0,0E0,0E0,0E0,0E0,0E0,0E0,0E0,0E0,0E0],"parents":[2147483647,0,0,1,1,2,2,3,3,4,4,5,5,6,6,7,7,8,8,9,9,10,10,11,11,12,12,13,13,14,14,15,15,16,16,17,17,18,18,19,19,20,20,21,21,22,22,23,23,24,24,25,25,26,26,27,27,28,28,29,29,30,30,31,31,32,32,33,33,34,34,35,35,36,36,37,37,38,38,39,39,40,40,41,41,42,42,43,43,44,44,45,45,46,46,47,47,48,48,49,49,50,50,51,51,52,52,53,53,54,54,55,55,56,56,57,57,58,58,59,59,60,60,61,61,62,62],"right_children":[2,4,6,8,10,12,14,16,18,20,22,24,26,28,30,32,34,36,38,40,42,44,46,48,50,52,54,56,58,60,62,64,66,68,70,72,74,76,78,80,82,84,86,88,90,92,94,96,98,100,102,104,106,108,110,112,114,116,118,120,122,124,126,-1,-1,-1,-1,-1,-1,-1,-1,-1,-1,-1,-1,-1,-1,-1,-1,-1,-1,-1,-1,-1,-1,-1,-1,-1,-1,-1,-1,-1,-1,-1,-1,-1,-1,-1,-1,-1,-1,-1,-1,-1,-1,-1,-1,-1,-1,-1,-1,-1,-1,-1,-1,-1,-1,-1,-1,-1,-1,-1,-1,-1,-1,-1,-1],"split_conditions":[1.9428572E1,4.571429E0,6.928571E1,1.2007488E0,9.928572E0,3.542857E1,8.7E1,5.327273E-1,2.5714285E0,7.428571E0,1.9E1,2.8E1,5.3E1,8.8E1,8.8E1,2.2397088E-1,9.285714E-1,2.0333333E0,1.4568828E1,8E0,5E0,1.34E1,5E0,2.6285715E1,6E0,3.4E1,6.5E1,3.2E1,2.1E1,7.085714E1,3.722371E1,5.0255255E-7,1E0,5E0,5E0,5E0,4.2857143E-1,3.7666667E0,8.7E1,5.633333E0,5E0,8.1E0,1.3E1,5E0,5E0,6.75E1,1.3857142E1,1.8E1,5E0,2.93E1,4.6E1,4.9E1,5E0,5E0,8.7E1,3.4E1,1E0,3.3E1,2.3E1,1E0,8.7E1,3E0,8.7E1,-6.1967548E-2,-5.9749722E-2,-5.365734E-2,-2.5491634E-2,-4.4355772E-2,-3.373938E-2,-2.7966265E-2,-8.649423E-3,-2.2529079E-2,-2.49528E-3,-5.3116303E-2,2.088866E-2,3.0887112E-2,8.395683E-2,1.429713E-1,1.1337365E0,8.186003E-2,1.2871689E-1,1.3814299E-1,2.1471117E-1,1.5042631E-1,2.0815961E-1,2.6664796E-1,5.095888E-1,2.5408146E-1,3.559141E-1,3.596709E-1,4.7701135E-1,4.3154246E-1,4.683773E0,4.9465165E-1,6.853177E-1,4.9562952E-1,6.3716364E-1,6.797689E-1,8.8283056E-1,7.6945776E-1,9.959199E-1,1.0413011E0,1.4332398E0,9.4973725E-1,1.3763378E0,1.2718763E0,1.5995498E0,1.4898224E0,1.8402226E0,2.02175E0,2.7148597E0,5.7964706E-1,1.8992112E0,2.6271534E0,2.078404E0,2.1627662E0,6.776381E-1,7.346199E0,2.7399561E0,6.452897E0,2.2451994E0,2.6934166E0,3.2490609E0,2.8013327E0,3.4767616E0,4.348565E0,5.728761E0],"split_indices":[20,20,22,29,22,20,17,29,20,20,17,17,17,16,16,29,22,24,29,17,7,24,7,20,7,17,16,17,18,20,23,29,20,7,7,7,20,24,17,24,7,24,20,7,7,24,20,17,7,24,17,22,7,7,17,18,7,11,18,16,18,7,18,0,0,0,0,0,0,0,0,0,0,0,0,0,0,0,0,0,0,0,0,0,0,0,0,0,0,0,0,0,0,0,0,0,0,0,0,0,0,0,0,0,0,0,0,0,0,0,0,0,0,0,0,0,0,0,0,0,0,0,0,0,0,0,0],"split_type":[0,0,0,0,0,0,0,0,0,0,0,0,0,0,0,0,0,0,0,0,0,0,0,0,0,0,0,0,0,0,0,0,0,0,0,0,0,0,0,0,0,0,0,0,0,0,0,0,0,0,0,0,0,0,0,0,0,0,0,0,0,0,0,0,0,0,0,0,0,0,0,0,0,0,0,0,0,0,0,0,0,0,0,0,0,0,0,0,0,0,0,0,0,0,0,0,0,0,0,0,0,0,0,0,0,0,0,0,0,0,0,0,0,0,0,0,0,0,0,0,0,0,0,0,0,0,0],"sum_hessian":[7.550201E6,7.417506E6,1.32695E5,6.710619E6,7.06887E5,1.21528E5,1.1167E4,5.31044E6,1.400179E6,5.0163E5,2.05257E5,8.8414E4,3.3114E4,5.775E3,5.392E3,4.687185E6,6.23255E5,8.14369E5,5.8581E5,3.37713E5,1.63917E5,1.55909E5,4.9348E4,6.0727E4,2.7687E4,2.3117E4,9.997E3,3.862E3,1.913E3,1.917E3,3.475E3,4.515794E6,1.71391E5,4.37578E5,1.85677E5,5.52441E5,2.61928E5,5.84164E5,1.646E3,2.57079E5,8.0634E4,1.1699E5,4.6927E4,1.01877E5,5.4032E4,2.6389E4,2.2959E4,4.1401E4,1.9326E4,2.1125E4,6.562E3,1.2917E4,1.02E4,6.474E3,3.523E3,5.31E2,3.331E3,1.84E2,1.729E3,4.2E2,1.497E3,1.096E3,2.379E3,4.393831E6,1.21963E5,1.69474E5,1.917E3,3.12031E5,1.25547E5,1.29626E5,5.6051E4,3.96128E5,1.56313E5,1.8119E4,2.43809E5,4.30431E5,1.53733E5,6.15E2,1.031E3,1.74801E5,8.2278E4,4.5206E4,3.5428E4,6.2639E4,5.4351E4,4.5445E4,1.482E3,7.6529E4,2.5348E4,4.3438E4,1.0594E4,2.6382E4,7E0,1.1199E4,1.176E4,2.5115E4,1.6286E4,1.5563E4,3.763E3,1.3373E4,7.752E3,4.222E3,2.34E3,1.0851E4,2.066E3,7.564E3,2.636E3,4.109E3,2.365E3,2.333E3,1.19E3,2.38E2,2.93E2,4.18E2,2.913E3,1.22E2,6.2E1,1.6E1,1.713E3,6E0,4.14E2,8.14E2,6.83E2,3.51E2,7.45E2,9.88E2,1.391E3],"tree_param":{"num_deleted":"0","num_feature":"42","num_nodes":"127","size_leaf_vector":"1"}},{"base_weights":[1.666176E-4,-3.5277295E-1,2.1406986E1,-8.036572E-1,4.358188E0,1.7428303E1,5.6780865E1,-1.083339E0,5.368082E-1,3.200353E0,7.6102376E0,1.4533139E1,2.7614735E1,4.307039E1,7.3692245E1,-1.162388E0,-5.5890006E-1,1.6927177E-1,1.3031541E0,2.5198975E0,4.4685917E0,6.662863E0,9.998934E0,1.2845865E1,1.8807514E1,2.4288813E1,3.6064045E1,3.292301E1,4.8915436E1,5.3952972E1,8.858747E1,-1.1749738E0,-9.363995E-1,-7.0446247E-1,-3.3484548E-1,-6.2896006E-2,4.9206388E-1,9.961177E-1,2.0289702E0,2.1215284E0,3.5860245E0,3.8724153E0,5.978211E0,5.5709047E0,7.916389E0,7.657413E0,1.1287618E1,1.0952614E1,1.539249E1,1.4743951E1,2.1151234E1,2.0609247E1,2.8177254E1,3.325927E1,5.153326E1,2.308187E1,3.841477E1,4.538117E1,5.773871E1,4.7295967E1,6.314814E1,6.3881886E1,1.01098526E2,-5.874923E-2,1.2051139E0,-4.8982803E-2,-4.167588E-2,-3.894133E-2,-2.5971202E-2,-2.2722257E-2,-2.8909163E-3,-9.572592E-3,1.4395331E-2,1.4391999E-2,5.0113972E-2,1.2450927E-2,5.60004E-2,2.806071E-2,1.1076961E-1,1.0564468E-1,3.4768484E0,1.7514703E-1,6.004162E-1,1.6268258E-1,2.2811599E-1,2.5702634E-1,3.429866E-1,1.8905906E-1,2.945681E-1,3.4998092E-1,4.6994153E-1,1.9206075E-1,4.118587E-1,5.000169E-1,7.0180506E-1,4.4437757E-1,5.8645064E-1,6.699406E-1,8.406207E-1,4.6866083E-1,7.866928E-1,9.25116E-1,1.2630662E0,7.6235545E-1,1.1016588E0,1.9670213E0,1.3716388E0,1.2969471E0,1.8752686E0,2.016136E0,2.840757E0,1.373948E0,1.8928611E-1,3.3137243E0,1.8765894E0,1.9956524E0,2.5832286E0,3.5117455E0,2.6423147E0,1.5978057E0,2.4880805E0,2.552347E0,3.4122078E0,2.7444143E0,3.5939057E0,3.8865514E0,5.7483582E0],"categories":[],"categories_nodes":[],"categories_segments":[],"categories_sizes":[],"default_left":[1,1,0,0,0,0,1,0,1,0,0,0,0,0,0,0,0,1,0,0,0,0,0,0,0,0,1,1,0,0,0,1,0,0,0,0,0,0,0,0,0,0,0,0,0,0,1,0,0,0,1,1,0,0,0,0,0,1,0,0,0,0,0,0,0,0,0,0,0,0,0,0,0,0,0,0,0,0,0,0,0,0,0,0,0,0,0,0,0,0,0,0,0,0,0,0,0,0,0,0,0,0,0,0,0,0,0,0,0,0,0,0,0,0,0,0,0,0,0,0,0,0,0,0,0,0,0],"id":10,"left_children":[1,3,5,7,9,11,13,15,17,19,21,23,25,27,29,31,33,35,37,39,41,43,45,47,49,51,53,55,57,59,61,63,65,67,69,71,73,75,77,79,81,83,85,87,89,91,93,95,97,99,101,103,105,107,109,111,113,115,117,119,121,123,125,-1,-1,-1,-1,-1,-1,-1,-1,-1,-1,-1,-1,-1,-1,-1,-1,-1,-1,-1,-1,-1,-1,-1,-1,-1,-1,-1,-1,-1,-1,-1,-1,-1,-1,-1,-1,-1,-1,-1,-1,-1,-1,-1,-1,-1,-1,-1,-1,-1,-1,-1,-1,-1,-1,-1,-1,-1,-1,-1,-1,-1,-1,-1,-1],"loss_changes":[5.704415E7,1.5777251E7,1.7234636E7,2.5414475E6,2.44296E6,3.2461E6,2.867524E6,2.32516E5,3.296068E5,4.12893E5,3.85428E5,6.1799E5,6.83738E5,4.04083E5,1.624684E6,1.3862E4,2.3960203E4,5.9272574E4,8.452981E4,1.3224462E5,1.503405E5,1.669145E5,1.45878E5,2.96174E5,2.30728E5,2.49576E5,2.9675E5,1.3438825E5,1.32655E5,1.430655E5,9.6935E5,1.2765E3,1.1435E3,6.127578E3,9.586127E3,2.0746586E4,3.447671E4,2.4672062E4,3.0852062E4,1.3181269E5,5.92295E4,5.111525E4,3.4891375E4,3.7367375E4,7.7107E4,3.796775E4,1.10244E5,5.64255E4,7.39635E4,4.704725E4,1.670115E5,6.828275E4,6.9545E4,1.801155E5,6.011925E4,7.617334E4,3.6995E4,1.04518E5,7.19145E4,5.090775E4,5.812275E4,7.2572E4,6.69678E5,0E0,0E0,0E0,0E0,0E0,0E0,0E0,0E0,0E0,0E0,0E0,0E0,0E0,0E0,0E0,0E0,0E0,0E0,0E0,0E0,0E0,0E0,0E0,0E0,0E0,0E0,0E0,0E0,0E0,0E0,0E0,0E0,0E0,0E0,0E0,0E0,0E0,0E0,0E0,0E0,0E0,0E0,0E0,0E0,0E0,0E0,0E0,0E0,0E0,0E0,0E0,0E0,0E0,0E0,0E0,0E0,0E0,0E0,0E0,0E0,0E0,0E0,0E0,0E0],"parents":[2147483647,0,0,1,1,2,2,3,3,4,4,5,5,6,6,7,7,8,8,9,9,10,10,11,11,12,12,13,13,14,14,15,15,16,16,17,17,18,18,19,19,20,20,21,21,22,22,23,23,24,24,25,25,26,26,27,27,28,28,29,29,30,30,31,31,32,32,33,33,34,34,35,35,36,36,37,37,38,38,39,39,40,40,41,41,42,42,43,43,44,44,45,45,46,46,47,47,48,48,49,49,50,50,51,51,52,52,53,53,54,54,55,55,56,56,57,57,58,58,59,59,60,60,61,61,62,62],"right_children":[2,4,6,8,10,12,14,16,18,20,22,24,26,28,30,32,34,36,38,40,42,44,46,48,50,52,54,56,58,60,62,64,66,68,70,72,74,76,78,80,82,84,86,88,90,92,94,96,98,100,102,104,106,108,110,112,114,116,118,120,122,124,126,-1,-1,-1,-1,-1,-1,-1,-1,-1,-1,-1,-1,-1,-1,-1,-1,-1,-1,-1,-1,-1,-1,-1,-1,-1,-1,-1,-1,-1,-1,-1,-1,-1,-1,-1,-1,-1,-1,-1,-1,-1,-1,-1,-1,-1,-1,-1,-1,-1,-1,-1,-1,-1,-1,-1,-1,-1,-1,-1,-1,-1,-1,-1,-1],"split_conditions":[1.9995739E1,4.975965E0,6.712045E1,1.3704467E0,1.1159406E1,3.846801E1,8.8E1,3.566491E-1,3.1988263E0,7.736302E0,5E0,5E0,5E0,6.5E1,8.8E1,5.1244304E-2,1.0406216E0,2.2389386E0,5E0,5E0,5E0,1.4E1,1.2E1,2.734612E1,2.2E1,4.870703E1,8.8E1,4.7E1,4E0,5E0,3.796866E1,2.7245813E1,5E0,5E0,5E0,5E0,5E0,1E0,1E0,2.34127E1,1.2123245E1,9E0,1E1,4E0,1.6208849E1,3E0,2.3E1,1.4E1,3E1,8E0,3.7E1,2.4E1,3E0,4.1E1,6E0,4.9E1,2E0,3.716599E1,7E0,6.81664E1,2.7576733E1,4E0,8.7E1,-5.874923E-2,1.2051139E0,-4.8982803E-2,-4.167588E-2,-3.894133E-2,-2.5971202E-2,-2.2722257E-2,-2.8909163E-3,-9.572592E-3,1.4395331E-2,1.4391999E-2,5.0113972E-2,1.2450927E-2,5.60004E-2,2.806071E-2,1.1076961E-1,1.0564468E-1,3.4768484E0,1.7514703E-1,6.004162E-1,1.6268258E-1,2.2811599E-1,2.5702634E-1,3.429866E-1,1.8905906E-1,2.945681E-1,3.4998092E-1,4.6994153E-1,1.9206075E-1,4.118587E-1,5.000169E-1,7.0180506E-1,4.4437757E-1,5.8645064E-1,6.699406E-1,8.406207E-1,4.6866083E-1,7.866928E-1,9.25116E-1,1.2630662E0,7.6235545E-1,1.1016588E0,1.9670213E0,1.3716388E0,1.2969471E0,1.8752686E0,2.016136E0,2.840757E0,1.373948E0,1.8928611E-1,3.3137243E0,1.8765894E0,1.9956524E0,2.5832286E0,3.5117455E0,2.6423147E0,1.5978057E0,2.4880805E0,2.552347E0,3.4122078E0,2.7444143E0,3.5939057E0,3.8865514E0,5.7483582E0],"split_indices":[30,26,30,26,30,30,16,26,30,30,7,7,7,15,15,26,30,30,7,7,7,15,15,26,15,26,16,16,7,7,21,31,7,7,7,7,7,15,15,26,26,15,15,15,30,15,16,15,15,15,16,16,10,15,7,11,10,31,10,26,21,7,19,0,0,0,0,0,0,0,0,0,0,0,0,0,0,0,0,0,0,0,0,0,0,0,0,0,0,0,0,0,0,0,0,0,0,0,0,0,0,0,0,0,0,0,0,0,0,0,0,0,0,0,0,0,0,0,0,0,0,0,0,0,0,0,0],"split_type":[0,0,0,0,0,0,0,0,0,0,0,0,0,0,0,0,0,0,0,0,0,0,0,0,0,0,0,0,0,0,0,0,0,0,0,0,0,0,0,0,0,0,0,0,0,0,0,0,0,0,0,0,0,0,0,0,0,0,0,0,0,0,0,0,0,0,0,0,0,0,0,0,0,0,0,0,0,0,0,0,0,0,0,0,0,0,0,0,0,0,0,0,0,0,0,0,0,0,0,0,0,0,0,0,0,0,0,0,0,0,0,0,0,0,0,0,0,0,0,0,0,0,0,0,0,0,0],"sum_hessian":[7.550201E6,7.427739E6,1.22462E5,6.778931E6,6.48808E5,1.10082E5,1.238E4,5.608702E6,1.170229E6,4.78462E5,1.70346E5,8.5721E4,2.4361E4,6.839E3,5.541E3,4.874034E6,7.34668E5,7.90912E5,3.79317E5,3.11392E5,1.6707E5,1.21974E5,4.8372E4,6.1463E4,2.4258E4,1.7483E4,6.878E3,2.502E3,4.337E3,2.385E3,3.156E3,4.616903E6,2.57131E5,4.4534E5,2.89328E5,4.60034E5,3.30878E5,2.66559E5,1.12758E5,2.2669E5,8.4702E4,1.19773E5,4.7297E4,6.5191E4,5.6783E4,1.7174E4,3.1198E4,3.5257E4,2.6206E4,8.876E3,1.5382E4,8.986E3,8.497E3,5.825E3,1.053E3,8.98E2,1.604E3,3.101E3,1.236E3,1.387E3,9.98E2,1.063E3,2.093E3,4.616902E6,1E0,1.81015E5,7.6116E4,3.1767E5,1.2767E5,2.02083E5,8.7245E4,3.36661E5,1.23373E5,2.36297E5,9.4581E4,3.7916E4,2.28643E5,1.2708E4,1.0005E5,2.26662E5,2.8E1,8.3876E4,8.26E2,6.3145E4,5.6628E4,2.4255E4,2.3042E4,9.902E3,5.5289E4,3.5089E4,2.1694E4,2.266E3,1.4908E4,2.125E4,9.948E3,9.637E3,2.562E4,1.0905E4,1.5301E4,1.383E3,7.493E3,9.357E3,6.025E3,1.888E3,7.098E3,5.28E2,7.969E3,2.141E3,3.684E3,3.4E2,7.13E2,7.31E2,1.67E2,4.7E1,1.557E3,1.662E3,1.439E3,3.44E2,8.92E2,1.94E2,1.193E3,2.99E2,6.99E2,5.04E2,5.59E2,7.82E2,1.311E3],"tree_param":{"num_deleted":"0","num_feature":"42","num_nodes":"127","size_leaf_vector":"1"}},{"base_weights":[1.6786833E-4,-3.84003E-1,1.7840225E1,-8.229463E-1,3.3172238E0,1.4820418E1,5.3930004E1,-1.061826E0,1.947986E-1,2.2758641E0,5.7848005E0,1.1815266E1,2.3841124E1,4.116864E1,6.749222E1,-1.111137E0,-6.711886E-1,-1.3676514E-1,6.7520976E-1,1.7275882E0,3.098238E0,4.964335E0,7.1917243E0,9.994691E0,1.4097846E1,2.0713606E1,3.0129614E1,2.4013977E1,4.348237E1,4.979676E1,7.755549E1,-1.1182427E0,-9.65003E-1,-7.77405E-1,-5.4905695E-1,-3.3310935E-1,6.1949294E-2,4.2298254E-1,9.014697E-1,8.346258E-1,1.8806814E0,1.6475228E0,3.3151908E0,4.282581E0,5.7608566E0,5.8182607E0,7.9799943E0,8.5938635E0,1.1117332E1,1.2025057E1,1.5596893E1,1.635802E1,2.2660425E1,2.3868292E1,3.2384605E1,4.338165E0,3.0392376E1,6.805049E1,4.2772537E1,4.354074E1,5.279398E1,5.9956608E1,9.1387505E1,-5.597025E-2,-5.357905E-2,-4.887634E-2,-1.7161857E-2,-4.3489207E-2,-3.6240034E-2,-5.735143E-2,-2.6470099E-2,-1.7135648E-2,1.5748633E-1,2.4440133E-3,1.3418452E-1,3.6348929E-3,2.8017092E-2,3.7597124E-2,6.9046535E-2,2.0088907E-2,6.2022712E-2,1.5422246E-1,8.9979135E-2,3.2150578E-2,1.0774689E-1,2.5352484E-1,1.5983848E-1,7.164746E-2,2.230798E-1,3.9795148E-1,2.7879152E-1,1.4615288E-1,3.1323275E-1,5.580661E-1,3.8707158E-1,4.4504166E-1,1.7865352E-1,7.533264E-1,5.40175E-1,3.7588522E-1,6.2607145E-1,1.0552114E0,7.584302E-1,8.589711E-1,3.8694975E-1,1.0258783E0,1.2951983E0,3.936053E-1,1.2382573E0,2.4208212E0,1.5939451E0,2.4988506E0,-1.6952519E-1,2.278794E0,1.359114E0,4.360978E0,2.6987903E0,1.9356215E0,2.3094985E0,2.6231163E0,2.0718055E0,1.8354584E0,2.7271833E0,2.0053573E0,3.1865554E0,3.8791006E0,5.3599257E0],"categories":[],"categories_nodes":[],"categories_segments":[],"categories_sizes":[],"default_left":[1,1,0,0,0,0,0,0,1,0,0,0,0,0,0,0,0,0,0,0,0,0,0,0,0,0,0,0,0,0,0,0,0,0,0,0,1,0,1,0,0,0,0,0,0,0,0,0,0,0,0,0,1,1,0,0,0,0,0,0,0,0,0,0,0,0,0,0,0,0,0,0,0,0,0,0,0,0,0,0,0,0,0,0,0,0,0,0,0,0,0,0,0,0,0,0,0,0,0,0,0,0,0,0,0,0,0,0,0,0,0,0,0,0,0,0,0,0,0,0,0,0,0,0,0,0,0],"id":11,"left_children":[1,3,5,7,9,11,13,15,17,19,21,23,25,27,29,31,33,35,37,39,41,43,45,47,49,51,53,55,57,59,61,63,65,67,69,71,73,75,77,79,81,83,85,87,89,91,93,95,97,99,101,103,105,107,109,111,113,115,117,119,121,123,125,-1,-1,-1,-1,-1,-1,-1,-1,-1,-1,-1,-1,-1,-1,-1,-1,-1,-1,-1,-1,-1,-1,-1,-1,-1,-1,-1,-1,-1,-1,-1,-1,-1,-1,-1,-1,-1,-1,-1,-1,-1,-1,-1,-1,-1,-1,-1,-1,-1,-1,-1,-1,-1,-1,-1,-1,-1,-1,-1,-1,-1,-1,-1,-1],"loss_changes":[5.1746308E7,1.2007703E7,1.7345116E7,1.606392E6,2.013561E6,3.981212E6,2.124108E6,1.03081E5,2.0007258E5,2.484575E5,2.684065E5,4.5769E5,7.21186E5,2.50361E5,1.056748E6,4.933E3,7.7804688E3,2.89952E4,2.9270203E4,4.5197312E4,6.93705E4,7.974325E4,9.2693E4,9.6294E4,1.51696E5,2.07496E5,1.71313E5,9.462075E4,9.44E4,3.82405E4,9.1833E5,2.445E2,1.7153906E3,1.5583281E3,3.2785625E3,1.2504059E4,1.2655067E4,1.1669449E4,1.9382188E4,8.499781E3,2.7547688E4,1.4615906E4,3.984175E4,4.0371625E4,2.750775E4,4.0354875E4,4.12165E4,4.200075E4,4.20025E4,4.58135E4,6.65805E4,5.3502875E4,1.17203E5,4.615775E4,7.1081E4,6.577676E4,2.654325E4,3.7111E4,7.3499E4,1.1082375E4,3.90025E4,1.227885E5,4.5509E5,0E0,0E0,0E0,0E0,0E0,0E0,0E0,0E0,0E0,0E0,0E0,0E0,0E0,0E0,0E0,0E0,0E0,0E0,0E0,0E0,0E0,0E0,0E0,0E0,0E0,0E0,0E0,0E0,0E0,0E0,0E0,0E0,0E0,0E0,0E0,0E0,0E0,0E0,0E0,0E0,0E0,0E0,0E0,0E0,0E0,0E0,0E0,0E0,0E0,0E0,0E0,0E0,0E0,0E0,0E0,0E0,0E0,0E0,0E0,0E0,0E0,0E0,0E0,0E0],"parents":[2147483647,0,0,1,1,2,2,3,3,4,4,5,5,6,6,7,7,8,8,9,9,10,10,11,11,12,12,13,13,14,14,15,15,16,16,17,17,18,18,19,19,20,20,21,21,22,22,23,23,24,24,25,25,26,26,27,27,28,28,29,29,30,30,31,31,32,32,33,33,34,34,35,35,36,36,37,37,38,38,39,39,40,40,41,41,42,42,43,43,44,44,45,45,46,46,47,47,48,48,49,49,50,50,51,51,52,52,53,53,54,54,55,55,56,56,57,57,58,58,59,59,60,60,61,61,62,62],"right_children":[2,4,6,8,10,12,14,16,18,20,22,24,26,28,30,32,34,36,38,40,42,44,46,48,50,52,54,56,58,60,62,64,66,68,70,72,74,76,78,80,82,84,86,88,90,92,94,96,98,100,102,104,106,108,110,112,114,116,118,120,122,124,126,-1,-1,-1,-1,-1,-1,-1,-1,-1,-1,-1,-1,-1,-1,-1,-1,-1,-1,-1,-1,-1,-1,-1,-1,-1,-1,-1,-1,-1,-1,-1,-1,-1,-1,-1,-1,-1,-1,-1,-1,-1,-1,-1,-1,-1,-1,-1,-1,-1,-1,-1,-1,-1,-1,-1,-1,-1,-1,-1,-1,-1,-1,-1,-1],"split_conditions":[1.7202362E1,4.023331E0,6.759784E1,9.7436583E-1,9.018122E0,3.3217167E1,8.8E1,2.1168648E-1,2.3437693E0,6.1407595E0,1.2866539E1,2.3101711E1,4.805495E1,3.4E1,3.722371E1,2.9292079E-2,6.734347E-1,1.6131545E0,3E0,2E0,3E0,1.1E1,1.2E1,1.8E1,2.4E1,3E1,4.1E1,1.2E1,2E0,2.6917162E1,8.7E1,1.7031617E-19,3.1E1,6.796535E-1,1.4285715E-1,8E0,3.2372055E0,1E0,2.9140053E0,1E0,3E0,1E0,3E0,1E0,3E0,3E0,3E0,1.4285715E-1,3E0,7E0,3E0,1.4285715E-1,4.1285713E1,3.542857E1,2E0,2.8E1,9E0,9.644E1,6.5E1,5E0,7.085714E1,1.9E1,5.1E1,-5.597025E-2,-5.357905E-2,-4.887634E-2,-1.7161857E-2,-4.3489207E-2,-3.6240034E-2,-5.735143E-2,-2.6470099E-2,-1.7135648E-2,1.5748633E-1,2.4440133E-3,1.3418452E-1,3.6348929E-3,2.8017092E-2,3.7597124E-2,6.9046535E-2,2.0088907E-2,6.2022712E-2,1.5422246E-1,8.9979135E-2,3.2150578E-2,1.0774689E-1,2.5352484E-1,1.5983848E-1,7.164746E-2,2.230798E-1,3.9795148E-1,2.7879152E-1,1.4615288E-1,3.1323275E-1,5.580661E-1,3.8707158E-1,4.4504166E-1,1.7865352E-1,7.533264E-1,5.40175E-1,3.7588522E-1,6.2607145E-1,1.0552114E0,7.584302E-1,8.589711E-1,3.8694975E-1,1.0258783E0,1.2951983E0,3.936053E-1,1.2382573E0,2.4208212E0,1.5939451E0,2.4988506E0,-1.6952519E-1,2.278794E0,1.359114E0,4.360978E0,2.6987903E0,1.9356215E0,2.3094985E0,2.6231163E0,2.0718055E0,1.8354584E0,2.7271833E0,2.0053573E0,3.1865554E0,3.8791006E0,5.3599257E0],"split_indices":[28,28,28,26,28,28,15,26,28,28,28,28,28,15,23,28,28,28,15,15,15,15,15,15,15,15,15,19,10,29,19,26,10,29,20,15,26,15,29,15,10,15,10,15,10,15,10,41,10,15,10,41,20,20,10,11,15,33,15,10,20,19,0,0,0,0,0,0,0,0,0,0,0,0,0,0,0,0,0,0,0,0,0,0,0,0,0,0,0,0,0,0,0,0,0,0,0,0,0,0,0,0,0,0,0,0,0,0,0,0,0,0,0,0,0,0,0,0,0,0,0,0,0,0,0,0,0],"split_type":[0,0,0,0,0,0,0,0,0,0,0,0,0,0,0,0,0,0,0,0,0,0,0,0,0,0,0,0,0,0,0,0,0,0,0,0,0,0,0,0,0,0,0,0,0,0,0,0,0,0,0,0,0,0,0,0,0,0,0,0,0,0,0,0,0,0,0,0,0,0,0,0,0,0,0,0,0,0,0,0,0,0,0,0,0,0,0,0,0,0,0,0,0,0,0,0,0,0,0,0,0,0,0,0,0,0,0,0,0,0,0,0,0,0,0,0,0,0,0,0,0,0,0,0,0,0,0],"sum_hessian":[7.550201E6,7.391042E6,1.59159E5,6.60744E6,7.83602E5,1.46871E5,1.2288E4,5.35139E6,1.25605E6,5.51051E5,2.32551E5,1.10171E5,3.67E4,6.333E3,5.955E3,4.751585E6,5.99805E5,7.43152E5,5.12898E5,3.30626E5,2.20425E5,1.46893E5,8.5658E4,6.1291E4,4.888E4,2.4513E4,1.2187E4,7.54E2,5.579E3,2.161E3,3.794E3,4.531249E6,2.20336E5,3.20802E5,2.79003E5,3.73805E5,3.69347E5,2.42533E5,2.70365E5,4.8389E4,2.82237E5,2.8677E4,1.91748E5,7.9152E4,6.7741E4,3.1238E4,5.442E4,2.7271E4,3.402E4,2.0518E4,2.8362E4,7.575E3,1.6938E4,3.23E3,8.957E3,1.85E2,5.69E2,1.54E2,5.425E3,7.05E2,1.456E3,1.672E3,2.122E3,4.4211E6,1.10149E5,2.15985E5,4.351E3,1.16391E5,2.04411E5,8.877E3,2.70126E5,3.72778E5,1.027E3,3.67516E5,1.831E3,6.8317E4,1.74216E5,2.06094E5,6.4271E4,2.3416E4,2.4973E4,1.7812E4,2.64425E5,9.625E3,1.9052E4,1.2116E4,1.79632E5,4.679E3,7.4473E4,5.256E3,6.2485E4,4.174E3,2.7064E4,3.793E3,5.0627E4,2.5699E4,1.572E3,2.501E3,3.1519E4,2.037E3,1.8481E4,2.043E3,2.6319E4,6.915E3,6.6E2,1.0204E4,6.734E3,1.72E2,3.058E3,2.71E2,8.686E3,2.6E1,1.59E2,9.7E1,4.72E2,6.3E1,9.1E1,2.485E3,2.94E3,1.3E2,5.75E2,1.45E2,1.311E3,2.69E2,1.403E3,1.136E3,9.86E2],"tree_param":{"num_deleted":"0","num_feature":"42","num_nodes":"127","size_leaf_vector":"1"}},{"base_weights":[1.6714282E-4,-3.1856695E-1,1.9332325E1,-7.3459524E-1,3.8549714E0,1.57355585E1,5.1310635E1,-9.7960895E-1,4.3473357E-1,3.698841E0,4.88917E1,1.53898115E1,1.1369832E2,4.983758E1,3.581097E2,-9.840874E-1,1.8403574E1,3.8927534E-1,2.1231995E1,2.650367E0,6.4965425E0,4.193715E1,1.0944487E2,1.2818823E1,2.4438805E1,9.680535E1,2.3384305E2,3.7488808E1,6.5124855E1,2.9250763E2,6.177818E2,-1.0540105E0,-5.563889E-1,9.045177E1,1.4876932E1,4.9530413E-2,8.820809E-1,1.9677505E1,7.85936E1,2.102284E0,3.6680353E0,5.6437254E0,8.572679E0,3.8108044E1,9.5767914E1,3.3457535E2,5.1115868E1,1.1173087E1,1.681188E1,2.0832922E1,3.1385805E1,6.971887E1,1.1873903E2,4.051651E2,1.1353402E2,2.8885122E1,4.2449696E1,9.375601E1,5.596347E1,2.2431012E2,4.191456E2,7.0359534E2,7.7206955E0,-5.3190865E-2,-4.5138266E-2,-2.8221969E-2,1.5265308E-1,2.8753061E1,2.278393E0,7.21361E-1,9.70752E0,3.786328E-3,-9.744571E-2,2.4517255E-2,5.769072E-2,8.821495E-1,1.6412096E0,3.1392E0,1.5594939E1,5.548774E-2,1.18715785E-1,1.0117797E-1,1.9951151E-1,2.2199579E-1,3.305466E-1,3.3137938E-1,4.8456678E-1,1.5773486E0,2.4842455E0,5.5895457E0,3.2665803E0,1.2648894E1,4.385972E1,1.8701566E0,5.666817E0,4.55995E-1,6.307096E-1,6.713965E-1,9.2815965E-1,8.4429944E-1,1.1599538E0,1.2758021E0,1.7161487E0,4.668315E0,2.71065E0,7.9698944E0,5.007068E0,6.7445025E0,3.7996605E1,4.3331575E0,9.280244E0,1.0075501E0,1.6884549E0,1.8816986E0,2.3510015E0,2.5051792E0,6.071964E0,2.3657346E0,3.201248E0,7.960102E0,1.336661E1,3.1851133E1,1.4671735E1,3.800001E1,6.308911E0],"categories":[],"categories_nodes":[],"categories_segments":[],"categories_sizes":[],"default_left":[1,1,0,0,0,0,0,0,0,0,0,0,0,1,0,1,0,1,1,0,1,1,0,1,1,0,0,0,0,0,0,0,0,0,0,0,0,0,0,0,0,0,0,1,0,0,1,0,0,0,0,0,0,0,0,1,0,0,0,0,0,0,0,0,0,0,0,0,0,0,0,0,0,0,0,0,0,0,0,0,0,0,0,0,0,0,0,0,0,0,0,0,0,0,0,0,0,0,0,0,0,0,0,0,0,0,0,0,0,0,0,0,0,0,0,0,0,0,0,0,0,0,0,0,0],"id":12,"left_children":[1,3,5,7,9,11,13,15,17,19,21,23,25,27,29,31,33,35,37,39,41,43,45,47,49,51,53,55,57,59,61,63,65,67,69,71,73,75,77,79,81,83,85,87,89,91,93,95,97,99,101,103,105,107,109,111,113,115,117,119,121,123,-1,-1,-1,-1,-1,-1,-1,-1,-1,-1,-1,-1,-1,-1,-1,-1,-1,-1,-1,-1,-1,-1,-1,-1,-1,-1,-1,-1,-1,-1,-1,-1,-1,-1,-1,-1,-1,-1,-1,-1,-1,-1,-1,-1,-1,-1,-1,-1,-1,-1,-1,-1,-1,-1,-1,-1,-1,-1,-1,-1,-1,-1,-1],"loss_changes":[4.6522972E7,1.2896861E7,1.4084704E7,1.935159E6,4.734184E6,3.72679E6,5.577524E6,4.847745E5,1.1062189E6,1.968163E6,9.74935E5,2.55177E6,7.62818E5,2.323882E6,8.243615E5,1.66966E5,3.2642806E5,1.9548177E5,2.2601012E5,2.7221975E5,3.238025E5,4.267365E5,3.1213592E6,5.61204E5,6.07311E5,1.9431175E5,9.22745E5,2.89821E5,1.43872E6,3.2916475E5,3.287505E5,7.116E3,2.2797547E4,1.2788658E6,9.644416E4,3.6180508E4,5.071678E4,6.591419E4,2.2754466E5,8.56475E4,9.051225E4,1.50931E5,1.1581275E5,1.4662425E5,5.99965E4,1.94763E6,1.5872453E5,1.7889E5,1.475005E5,1.48846E5,1.420655E5,5.1772812E4,1.2543925E5,1.719301E6,4.0076438E4,1.058345E5,9.33775E4,1.604768E6,2.8792E5,5.2677E4,2.51308E5,1.97227E5,0E0,0E0,0E0,0E0,0E0,0E0,0E0,0E0,0E0,0E0,0E0,0E0,0E0,0E0,0E0,0E0,0E0,0E0,0E0,0E0,0E0,0E0,0E0,0E0,0E0,0E0,0E0,0E0,0E0,0E0,0E0,0E0,0E0,0E0,0E0,0E0,0E0,0E0,0E0,0E0,0E0,0E0,0E0,0E0,0E0,0E0,0E0,0E0,0E0,0E0,0E0,0E0,0E0,0E0,0E0,0E0,0E0,0E0,0E0,0E0,0E0,0E0,0E0],"parents":[2147483647,0,0,1,1,2,2,3,3,4,4,5,5,6,6,7,7,8,8,9,9,10,10,11,11,12,12,13,13,14,14,15,15,16,16,17,17,18,18,19,19,20,20,21,21,22,22,23,23,24,24,25,25,26,26,27,27,28,28,29,29,30,30,31,31,32,32,33,33,34,34,35,35,36,36,37,37,38,38,39,39,40,40,41,41,42,42,43,43,44,44,45,45,46,46,47,47,48,48,49,49,50,50,51,51,52,52,53,53,54,54,55,55,56,56,57,57,58,58,59,59,60,60,61,61],"right_children":[2,4,6,8,10,12,14,16,18,20,22,24,26,28,30,32,34,36,38,40,42,44,46,48,50,52,54,56,58,60,62,64,66,68,70,72,74,76,78,80,82,84,86,88,90,92,94,96,98,100,102,104,106,108,110,112,114,116,118,120,122,124,-1,-1,-1,-1,-1,-1,-1,-1,-1,-1,-1,-1,-1,-1,-1,-1,-1,-1,-1,-1,-1,-1,-1,-1,-1,-1,-1,-1,-1,-1,-1,-1,-1,-1,-1,-1,-1,-1,-1,-1,-1,-1,-1,-1,-1,-1,-1,-1,-1,-1,-1,-1,-1,-1,-1,-1,-1,-1,-1,-1,-1,-1,-1],"split_conditions":[1.9995739E1,4.755427E0,6.712045E1,1.4148878E0,1E0,1E0,1E0,1E0,1E0,1.0820317E1,7.0848092E-3,3.846801E1,5.739796E-3,8.8E1,1.146797E6,5.437225E-1,3.0446993E-3,2.8276055E0,7.0094395E0,7.567891E0,1.8E1,1.6034636E1,7.355226E-3,3.2E1,5.4E1,2.6650911E1,9.7E1,6.5E1,2.60893E5,2.7085592E-3,1.7E1,5.6460004E-2,9E0,9.366E1,1.246498E6,1.255777E6,3E0,6.186205E-3,1.2564367E-2,3E0,4E0,1.2E1,1.2E1,8.7E0,1.4285715E-1,1.084437E6,1.2E1,2.1E1,2.2E1,3.7E1,4.1E1,9.84E1,3.2E1,3.65139E5,2.3E1,4.7E1,6.5E1,2.22879E5,8.8E1,6.27263E5,8.8E1,5.465615E-3,7.7206955E0,-5.3190865E-2,-4.5138266E-2,-2.8221969E-2,1.5265308E-1,2.8753061E1,2.278393E0,7.21361E-1,9.70752E0,3.786328E-3,-9.744571E-2,2.4517255E-2,5.769072E-2,8.821495E-1,1.6412096E0,3.1392E0,1.5594939E1,5.548774E-2,1.18715785E-1,1.0117797E-1,1.9951151E-1,2.2199579E-1,3.305466E-1,3.3137938E-1,4.8456678E-1,1.5773486E0,2.4842455E0,5.5895457E0,3.2665803E0,1.2648894E1,4.385972E1,1.8701566E0,5.666817E0,4.55995E-1,6.307096E-1,6.713965E-1,9.2815965E-1,8.4429944E-1,1.1599538E0,1.2758021E0,1.7161487E0,4.668315E0,2.71065E0,7.9698944E0,5.007068E0,6.7445025E0,3.7996605E1,4.3331575E0,9.280244E0,1.0075501E0,1.6884549E0,1.8816986E0,2.3510015E0,2.5051792E0,6.071964E0,2.3657346E0,3.201248E0,7.960102E0,1.336661E1,3.1851133E1,1.4671735E1,3.800001E1,6.308911E0],"split_indices":[30,30,30,30,3,3,3,3,3,30,34,30,34,16,1,27,27,30,31,30,16,31,34,16,16,30,33,15,1,34,10,30,15,33,1,1,15,34,34,15,15,15,15,24,41,1,18,15,15,15,15,33,16,1,18,16,16,1,15,1,16,34,0,0,0,0,0,0,0,0,0,0,0,0,0,0,0,0,0,0,0,0,0,0,0,0,0,0,0,0,0,0,0,0,0,0,0,0,0,0,0,0,0,0,0,0,0,0,0,0,0,0,0,0,0,0,0,0,0,0,0,0,0,0,0],"split_type":[0,0,0,0,0,0,0,0,0,0,0,0,0,0,0,0,0,0,0,0,0,0,0,0,0,0,0,0,0,0,0,0,0,0,0,0,0,0,0,0,0,0,0,0,0,0,0,0,0,0,0,0,0,0,0,0,0,0,0,0,0,0,0,0,0,0,0,0,0,0,0,0,0,0,0,0,0,0,0,0,0,0,0,0,0,0,0,0,0,0,0,0,0,0,0,0,0,0,0,0,0,0,0,0,0,0,0,0,0,0,0,0,0,0,0,0,0,0,0,0,0,0,0,0,0],"sum_hessian":[7.550201E6,7.427739E6,1.22462E5,6.754441E6,6.73298E5,1.10082E5,1.238E4,5.584335E6,1.170106E6,6.70973E5,2.325E3,1.09696E5,3.86E2,1.2322E4,5.8E1,5.583046E6,1.289E3,1.167555E6,2.551E3,4.88066E5,1.82907E5,2.087E3,2.38E2,8.5427E4,2.4269E4,3.4E2,4.6E1,6.818E3,5.504E3,4.8E1,1E1,4.798545E6,7.84501E5,5.9E1,1.23E3,6.91103E5,4.76452E5,2.485E3,6.6E1,3.17223E5,1.70843E5,1.29653E5,5.3254E4,1.95E3,1.37E2,4.8E1,1.9E2,6.0497E4,2.493E4,1.5979E4,8.29E3,1.54E2,1.86E2,1.8E1,2.8E1,2.496E3,4.322E3,1.332E3,4.172E3,3.3E1,1.5E1,8E0,2E0,4.506348E6,2.92197E5,7.82756E5,1.745E3,4E0,5.5E1,1.228E3,2E0,6.82162E5,8.941E3,1.95139E5,2.81313E5,2.154E3,3.31E2,6.3E1,3E0,6.8242E4,2.48981E5,2.799E4,1.42853E5,5.7764E4,7.1889E4,1.9447E4,3.3807E4,1.247E3,7.03E2,8.8E1,4.9E1,4.3E1,5E0,1.57E2,3.3E1,2.4953E4,3.5544E4,8.505E3,1.6425E4,5.992E3,9.987E3,2.768E3,5.522E3,5.9E1,9.5E1,5.6E1,1.3E2,1.1E1,7E0,2.2E1,6E0,8.97E2,1.599E3,2.109E3,2.213E3,5.18E2,8.14E2,2.016E3,2.156E3,1.5E1,1.8E1,4E0,1.1E1,7E0,1E0],"tree_param":{"num_deleted":"0","num_feature":"42","num_nodes":"125","size_leaf_vector":"1"}},{"base_weights":[2.0762836E-4,-3.6040738E-1,1.5517342E1,-7.430841E-1,2.9179144E0,1.296636E1,4.8918472E1,-9.5778996E-1,1.828713E-1,1.984291E0,4.9249296E0,1.0452496E1,2.21955E1,3.485758E1,6.606999E1,-1.003072E0,-6.062983E-1,-1.17829315E-1,6.1143273E-1,1.6064501E0,2.935127E0,4.236025E0,6.882028E0,9.1767E0,1.5031212E1,1.7642015E1,2.7782053E1,2.4264055E1,3.743594E1,9.168861E1,5.7615917E1,-1.0092493E0,-8.7603146E-1,-6.800652E-1,-4.293003E-1,-2.4198462E-1,2.0352396E-1,3.992452E-1,1.1424125E0,1.1660718E0,2.1593595E0,2.4935212E0,4.145051E0,3.466407E0,5.0220265E0,5.6520967E0,8.344061E0,7.8763847E0,1.1124085E1,1.4082794E1,2.058092E1,1.5604543E1,2.2545523E1,2.3369688E1,3.552649E1,1.9690975E1,5.571622E1,3.540093E1,4.7573757E1,5.085569E1,1.18499466E2,5.170863E1,8.0745705E1,-4.9510676E-2,-5.0744858E-2,-4.4373363E-2,-3.132807E-2,-3.8155485E-2,-2.8658971E-2,-3.060986E-2,-1.565415E-2,-1.0710711E-2,-9.257397E-2,-7.185685E-4,2.2994962E-2,1.9881018E-2,1.1640328E0,4.975525E-2,9.201049E-2,1.1566985E-2,6.2261183E-2,6.064356E-2,1.1639135E-1,1.0684734E-1,1.706902E-1,4.9348295E-2,2.1684694E-1,1.4850557E-1,2.1170764E-1,2.4969187E-1,2.5838292E0,7.1911715E-2,2.922158E-1,3.766689E-1,5.180636E-1,3.113302E-1,4.3266216E-1,4.9890772E-1,6.6245776E-1,6.635232E-1,8.922235E-1,7.043645E-1,1.0964495E0,6.189315E-1,9.020502E-1,1.0163473E0,1.346783E0,1.0996951E0,1.3714494E0,1.592018E0,2.3784904E0,-3.7241238E-1,1.1583712E0,1.4889742E0,4.8293796E0,1.4958972E0,1.8850033E0,3.5818124E0,2.2942157E0,2.2253454E0,2.9874704E0,1.5256985E0,6.1548505E0,2.4339085E0,3.1109884E0,2.7802775E0,5.14898E0],"categories":[],"categories_nodes":[],"categories_segments":[],"categories_sizes":[],"default_left":[1,1,0,0,0,1,0,0,1,0,1,0,0,0,0,0,0,0,0,0,1,0,0,1,0,0,0,0,0,0,0,0,0,1,0,0,0,1,1,0,0,0,0,1,0,0,0,0,0,0,0,0,0,0,0,0,0,0,0,0,0,0,1,0,0,0,0,0,0,0,0,0,0,0,0,0,0,0,0,0,0,0,0,0,0,0,0,0,0,0,0,0,0,0,0,0,0,0,0,0,0,0,0,0,0,0,0,0,0,0,0,0,0,0,0,0,0,0,0,0,0,0,0,0,0,0,0],"id":13,"left_children":[1,3,5,7,9,11,13,15,17,19,21,23,25,27,29,31,33,35,37,39,41,43,45,47,49,51,53,55,57,59,61,63,65,67,69,71,73,75,77,79,81,83,85,87,89,91,93,95,97,99,101,103,105,107,109,111,113,115,117,119,121,123,125,-1,-1,-1,-1,-1,-1,-1,-1,-1,-1,-1,-1,-1,-1,-1,-1,-1,-1,-1,-1,-1,-1,-1,-1,-1,-1,-1,-1,-1,-1,-1,-1,-1,-1,-1,-1,-1,-1,-1,-1,-1,-1,-1,-1,-1,-1,-1,-1,-1,-1,-1,-1,-1,-1,-1,-1,-1,-1,-1,-1,-1,-1,-1,-1],"loss_changes":[4.2248756E7,9.256885E6,1.4610436E7,1.3136125E6,1.4452185E6,3.695982E6,2.931958E6,8.537E4,1.60276E5,1.8911588E5,3.30123E5,7.31283E5,8.67056E5,1.81767E5,1.181586E6,3.728E3,7.9921875E3,2.9160809E4,5.777847E4,9.172356E4,7.9973625E4,1.0954725E5,1.1459325E5,2.478875E5,1.433175E5,1.873945E5,5.22434E5,1.8761219E5,1.09247E5,1.480666E6,5.59168E5,4.865E2,6.2803125E2,3.8347344E3,3.8274414E3,2.3563637E4,1.1378512E4,1.3613344E4,1.5048906E4,1.55144375E4,2.6628375E4,3.5981125E4,2.4251375E4,3.4858375E4,1.1758475E5,2.803975E4,4.755225E4,7.5208E4,9.5342E4,7.0977E4,3.45315E4,1.0414725E5,5.315825E4,5.3893E4,2.451335E5,1.0838984E5,1.7309528E5,5.53725E4,3.31375E4,2.78315E4,3.27543E5,1.01674E5,4.62126E5,0E0,0E0,0E0,0E0,0E0,0E0,0E0,0E0,0E0,0E0,0E0,0E0,0E0,0E0,0E0,0E0,0E0,0E0,0E0,0E0,0E0,0E0,0E0,0E0,0E0,0E0,0E0,0E0,0E0,0E0,0E0,0E0,0E0,0E0,0E0,0E0,0E0,0E0,0E0,0E0,0E0,0E0,0E0,0E0,0E0,0E0,0E0,0E0,0E0,0E0,0E0,0E0,0E0,0E0,0E0,0E0,0E0,0E0,0E0,0E0,0E0,0E0,0E0,0E0],"parents":[2147483647,0,0,1,1,2,2,3,3,4,4,5,5,6,6,7,7,8,8,9,9,10,10,11,11,12,12,13,13,14,14,15,15,16,16,17,17,18,18,19,19,20,20,21,21,22,22,23,23,24,24,25,25,26,26,27,27,28,28,29,29,30,30,31,31,32,32,33,33,34,34,35,35,36,36,37,37,38,38,39,39,40,40,41,41,42,42,43,43,44,44,45,45,46,46,47,47,48,48,49,49,50,50,51,51,52,52,53,53,54,54,55,55,56,56,57,57,58,58,59,59,60,60,61,61,62,62],"right_children":[2,4,6,8,10,12,14,16,18,20,22,24,26,28,30,32,34,36,38,40,42,44,46,48,50,52,54,56,58,60,62,64,66,68,70,72,74,76,78,80,82,84,86,88,90,92,94,96,98,100,102,104,106,108,110,112,114,116,118,120,122,124,126,-1,-1,-1,-1,-1,-1,-1,-1,-1,-1,-1,-1,-1,-1,-1,-1,-1,-1,-1,-1,-1,-1,-1,-1,-1,-1,-1,-1,-1,-1,-1,-1,-1,-1,-1,-1,-1,-1,-1,-1,-1,-1,-1,-1,-1,-1,-1,-1,-1,-1,-1,-1,-1,-1,-1,-1,-1,-1,-1,-1,-1,-1,-1,-1],"split_conditions":[1.6386667E1,4.023331E0,6.81664E1,9.922818E-1,8.578572E0,3.7E1,8.7E1,2.1168648E-1,2.3437693E0,5E0,1.5E1,3.0101522E1,3.8833088E1,3.4E1,2.60893E5,2.9292079E-2,5E0,5E0,5E0,5.8255267E0,1E1,1.1E1,5E0,2E1,4.870703E1,6E0,5E0,1.153584E6,5E0,2.22879E5,6E0,1.162761E6,1.745967E-2,1.0080138E0,9.0718716E-1,1.255777E6,1.6577326E0,8.7E1,7E0,1E0,3E0,6.430722E0,1E0,9E0,1.246498E6,1E0,2.5E1,1.5E1,5E0,5E0,3.4E1,2.6929117E1,2.9578094E1,6.5E1,8.7E1,1.8E1,1.8E1,5.3E1,4.1E1,5E0,5.3E1,5E0,3.7260498E1,-4.9510676E-2,-5.0744858E-2,-4.4373363E-2,-3.132807E-2,-3.8155485E-2,-2.8658971E-2,-3.060986E-2,-1.565415E-2,-1.0710711E-2,-9.257397E-2,-7.185685E-4,2.2994962E-2,1.9881018E-2,1.1640328E0,4.975525E-2,9.201049E-2,1.1566985E-2,6.2261183E-2,6.064356E-2,1.1639135E-1,1.0684734E-1,1.706902E-1,4.9348295E-2,2.1684694E-1,1.4850557E-1,2.1170764E-1,2.4969187E-1,2.5838292E0,7.1911715E-2,2.922158E-1,3.766689E-1,5.180636E-1,3.113302E-1,4.3266216E-1,4.9890772E-1,6.6245776E-1,6.635232E-1,8.922235E-1,7.043645E-1,1.0964495E0,6.189315E-1,9.020502E-1,1.0163473E0,1.346783E0,1.0996951E0,1.3714494E0,1.592018E0,2.3784904E0,-3.7241238E-1,1.1583712E0,1.4889742E0,4.8293796E0,1.4958972E0,1.8850033E0,3.5818124E0,2.2942157E0,2.2253454E0,2.9874704E0,1.5256985E0,6.1548505E0,2.4339085E0,3.1109884E0,2.7802775E0,5.14898E0],"split_indices":[28,28,26,26,28,17,17,26,28,7,17,26,28,17,1,28,7,7,7,28,17,15,7,17,26,7,7,1,7,1,7,1,34,25,25,1,28,17,17,15,15,26,15,17,1,15,17,15,